{"learner":{"attributes":{"scikit_learn":"{\"_estimator_type\": \"regressor\"}"},"feature_names":[],"feature_types":[],"gradient_booster":{"model":{"cats":{"enc":[],"feature_segments":[],"sorted_idx":[]},"gbtree_model_param":{"num_parallel_tree":"1","num_trees":"600"},"iteration_indptr":[0,1,2,3,4,5,6,7,8,9,10,11,12,13,14,15,16,17,18,19,20,21,22,23,24,25,26,27,28,29,30,31,32,33,34,35,36,37,38,39,40,41,42,43,44,45,46,47,48,49,50,51,52,53,54,55,56,57,58,59,60,61,62,63,64,65,66,67,68,69,70,71,72,73,74,75,76,77,78,79,80,81,82,83,84,85,86,87,88,89,90,91,92,93,94,95,96,97,98,99,100,101,102,103,104,105,106,107,108,109,110,111,112,113,114,115,116,117,118,119,120,121,122,123,124,125,126,127,128,129,130,131,132,133,134,135,136,137,138,139,140,141,142,143,144,145,146,147,148,149,150,151,152,153,154,155,156,157,158,159,160,161,162,163,164,165,166,167,168,169,170,171,172,173,174,175,176,177,178,179,180,181,182,183,184,185,186,187,188,189,190,191,192,193,194,195,196,197,198,199,200,201,202,203,204,205,206,207,208,209,210,211,212,213,214,215,216,217,218,219,220,221,222,223,224,225,226,227,228,229,230,231,232,233,234,235,236,237,238,239,240,241,242,243,244,245,246,247,248,249,250,251,252,253,254,255,256,257,258,259,260,261,262,263,264,265,266,267,268,269,270,271,272,273,274,275,276,277,278,279,280,281,282,283,284,285,286,287,288,289,290,291,292,293,294,295,296,297,298,299,300,301,302,303,304,305,306,307,308,309,310,311,312,313,314,315,316,317,318,319,320,321,322,323,324,325,326,327,328,329,330,331,332,333,334,335,336,337,338,339,340,341,342,343,344,345,346,347,348,349,350,351,352,353,354,355,356,357,358,359,360,361,362,363,364,365,366,367,368,369,370,371,372,373,374,375,376,377,378,379,380,381,382,383,384,385,386,387,388,389,390,391,392,393,394,395,396,397,398,399,400,401,402,403,404,405,406,407,408,409,410,411,412,413,414,415,416,417,418,419,420,421,422,423,424,425,426,427,428,429,430,431,432,433,434,435,436,437,438,439,440,441,442,443,444,445,446,447,448,449,450,451,452,453,454,455,456,457,458,459,460,461,462,463,464,465,466,467,468,469,470,471,472,473,474,475,476,477,478,479,480,481,482,483,484,485,486,487,488,489,490,491,492,493,494,495,496,497,498,499,500,501,502,503,504,505,506,507,508,509,510,511,512,513,514,515,516,517,518,519,520,521,522,523,524,525,526,527,528,529,530,531,532,533,534,535,536,537,538,539,540,541,542,543,544,545,546,547,548,549,550,551,552,553,554,555,556,557,558,559,560,561,562,563,564,565,566,567,568,569,570,571,572,573,574,575,576,577,578,579,580,581,582,583,584,585,586,587,588,589,590,591,592,593,594,595,596,597,598,599,600],"tree_info":[0,0,0,0,0,0,0,0,0,0,0,0,0,0,0,0,0,0,0,0,0,0,0,0,0,0,0,0,0,0,0,0,0,0,0,0,0,0,0,0,0,0,0,0,0,0,0,0,0,0,0,0,0,0,0,0,0,0,0,0,0,0,0,0,0,0,0,0,0,0,0,0,0,0,0,0,0,0,0,0,0,0,0,0,0,0,0,0,0,0,0,0,0,0,0,0,0,0,0,0,0,0,0,0,0,0,0,0,0,0,0,0,0,0,0,0,0,0,0,0,0,0,0,0,0,0,0,0,0,0,0,0,0,0,0,0,0,0,0,0,0,0,0,0,0,0,0,0,0,0,0,0,0,0,0,0,0,0,0,0,0,0,0,0,0,0,0,0,0,0,0,0,0,0,0,0,0,0,0,0,0,0,0,0,0,0,0,0,0,0,0,0,0,0,0,0,0,0,0,0,0,0,0,0,0,0,0,0,0,0,0,0,0,0,0,0,0,0,0,0,0,0,0,0,0,0,0,0,0,0,0,0,0,0,0,0,0,0,0,0,0,0,0,0,0,0,0,0,0,0,0,0,0,0,0,0,0,0,0,0,0,0,0,0,0,0,0,0,0,0,0,0,0,0,0,0,0,0,0,0,0,0,0,0,0,0,0,0,0,0,0,0,0,0,0,0,0,0,0,0,0,0,0,0,0,0,0,0,0,0,0,0,0,0,0,0,0,0,0,0,0,0,0,0,0,0,0,0,0,0,0,0,0,0,0,0,0,0,0,0,0,0,0,0,0,0,0,0,0,0,0,0,0,0,0,0,0,0,0,0,0,0,0,0,0,0,0,0,0,0,0,0,0,0,0,0,0,0,0,0,0,0,0,0,0,0,0,0,0,0,0,0,0,0,0,0,0,0,0,0,0,0,0,0,0,0,0,0,0,0,0,0,0,0,0,0,0,0,0,0,0,0,0,0,0,0,0,0,0,0,0,0,0,0,0,0,0,0,0,0,0,0,0,0,0,0,0,0,0,0,0,0,0,0,0,0,0,0,0,0,0,0,0,0,0,0,0,0,0,0,0,0,0,0,0,0,0,0,0,0,0,0,0,0,0,0,0,0,0,0,0,0,0,0,0,0,0,0,0,0,0,0,0,0,0,0,0,0,0,0,0,0,0,0,0,0,0,0,0,0,0,0,0,0,0,0,0,0,0,0,0,0,0,0,0,0,0,0,0,0,0,0,0,0,0,0,0,0,0,0,0,0,0,0,0,0,0,0,0,0,0,0,0,0,0,0,0,0,0,0,0,0,0,0,0,0,0,0,0,0,0,0,0,0,0,0,0,0,0,0,0,0,0,0,0,0,0,0,0,0],"trees":[{"base_weights":[4.4007457E-4,-5.2294054E-5,1.0923733E-1,8.754137E0,-5.0273946E-5,2.495374E0,-0E0],"categories":[],"categories_nodes":[],"categories_segments":[],"categories_sizes":[],"default_left":[0,0,0,0,0,0,0],"id":0,"left_children":[1,-1,3,5,-1,-1,-1],"loss_changes":[1.8099352E1,0E0,1.4381804E3,1.2381473E4,0E0,0E0,0E0],"parents":[2147483647,0,0,2,2,3,3],"right_children":[2,-1,4,6,-1,-1,-1],"split_conditions":[4.5E0,-5.2294054E-5,1E1,1.3333334E0,-5.0273946E-5,2.495374E0,-0E0],"split_indices":[4,0,3,5,0,0,0],"split_type":[0,0,0,0,0,0,0],"sum_hessian":[7.6152E4,7.4654E4,1.498E3,1.8E1,1.48E3,1E0,1.7E1],"tree_param":{"num_deleted":"0","num_feature":"10","num_nodes":"7","size_leaf_vector":"1"}},{"base_weights":[4.51217E-4,-5.072543E-5,1.0940094E-1,8.191574E0,-4.8731374E-5,2.4579432E0,-0E0],"categories":[],"categories_nodes":[],"categories_segments":[],"categories_sizes":[],"default_left":[0,0,0,0,0,0,0],"id":1,"left_children":[1,-1,3,5,-1,-1,-1],"loss_changes":[1.7852425E1,0E0,1.324388E3,1.2083485E4,0E0,0E0,0E0],"parents":[2147483647,0,0,2,2,3,3],"right_children":[2,-1,4,6,-1,-1,-1],"split_conditions":[4.5E0,-5.072543E-5,1E1,1.3333334E0,-4.8731374E-5,2.4579432E0,-0E0],"split_indices":[4,0,3,5,0,0,0],"split_type":[0,0,0,0,0,0,0],"sum_hessian":[7.6448E4,7.4974E4,1.474E3,1.9E1,1.455E3,1E0,1.8E1],"tree_param":{"num_deleted":"0","num_feature":"10","num_nodes":"7","size_leaf_vector":"1"}},{"base_weights":[4.7217478E-4,-4.9203645E-5,1.0883127E-1,8.068682E0,-4.7250105E-5,2.421074E0,-0E0],"categories":[],"categories_nodes":[],"categories_segments":[],"categories_sizes":[],"default_left":[0,0,0,0,0,0,0],"id":2,"left_children":[1,-1,3,5,-1,-1,-1],"loss_changes":[1.7488901E1,0E0,1.2847717E3,1.1723706E4,0E0,0E0,0E0],"parents":[2147483647,0,0,2,2,3,3],"right_children":[2,-1,4,6,-1,-1,-1],"split_conditions":[4.5E0,-4.9203645E-5,5E0,1.3333334E0,-4.7250105E-5,2.421074E0,-0E0],"split_indices":[4,0,4,5,0,0,0],"split_type":[0,0,0,0,0,0,0],"sum_hessian":[7.636E4,7.49E4,1.46E3,1.9E1,1.441E3,1E0,1.8E1],"tree_param":{"num_deleted":"0","num_feature":"10","num_nodes":"7","size_leaf_vector":"1"}},{"base_weights":[4.913474E-4,-4.772753E-5,1.0797094E-1,9.350453E0,-4.582327E-5,2.384758E0,-0E0],"categories":[],"categories_nodes":[],"categories_segments":[],"categories_sizes":[],"default_left":[0,0,0,0,0,0,0],"id":3,"left_children":[1,-1,3,5,-1,-1,-1],"loss_changes":[1.7086378E1,0E0,1.4694146E3,1.1151609E4,0E0,0E0,0E0],"parents":[2147483647,0,0,2,2,3,3],"right_children":[2,-1,4,6,-1,-1,-1],"split_conditions":[4.5E0,-4.772753E-5,1E1,1.3333334E0,-4.582327E-5,2.384758E0,-0E0],"split_indices":[4,0,3,5,0,0,0],"split_type":[0,0,0,0,0,0,0],"sum_hessian":[7.6297E4,7.4847E4,1.45E3,1.6E1,1.434E3,1E0,1.5E1],"tree_param":{"num_deleted":"0","num_feature":"10","num_nodes":"7","size_leaf_vector":"1"}},{"base_weights":[-1.5434079E-3],"categories":[],"categories_nodes":[],"categories_segments":[],"categories_sizes":[],"default_left":[0],"id":4,"left_children":[-1],"loss_changes":[0E0],"parents":[2147483647],"right_children":[-1],"split_conditions":[-4.6302237E-5],"split_indices":[0],"split_type":[0],"sum_hessian":[7.6458E4],"tree_param":{"num_deleted":"0","num_feature":"10","num_nodes":"1","size_leaf_vector":"1"}},{"base_weights":[5.5433274E-4,-4.4906643E-5,1.0275413E-1,8.240541E0,-4.3131662E-5,2.348987E0,-0E0],"categories":[],"categories_nodes":[],"categories_segments":[],"categories_sizes":[],"default_left":[0,0,0,0,0,0,0],"id":5,"left_children":[1,-1,3,5,-1,-1,-1],"loss_changes":[1.6002867E1,0E0,1.2743683E3,1.0971425E4,0E0,0E0,0E0],"parents":[2147483647,0,0,2,2,3,3],"right_children":[2,-1,4,6,-1,-1,-1],"split_conditions":[9E0,-4.4906643E-5,1E1,1.3333334E0,-4.3131662E-5,2.348987E0,-0E0],"split_indices":[3,0,3,5,0,0,0],"split_type":[0,0,0,0,0,0,0],"sum_hessian":[7.6287E4,7.4786E4,1.501E3,1.8E1,1.483E3,1E0,1.7E1],"tree_param":{"num_deleted":"0","num_feature":"10","num_nodes":"7","size_leaf_vector":"1"}},{"base_weights":[5.683408E-4,5.397851E-1,-4.3567627E-5,-3.2501637E-5,1.2852967E1,-0E0,2.3137524E0],"categories":[],"categories_nodes":[],"categories_segments":[],"categories_sizes":[],"default_left":[0,0,0,0,0,0,0],"id":6,"left_children":[1,3,-1,-1,5,-1,-1],"loss_changes":[8.317552E1,1.8993456E3,0E0,0E0,9.914173E3,0E0,0E0],"parents":[2147483647,0,0,1,1,4,4],"right_children":[2,4,-1,-1,6,-1,-1],"split_conditions":[7E0,2E0,-4.3567627E-5,-3.2501637E-5,2.3774E2,-0E0,2.3137524E0],"split_indices":[0,9,0,0,2,0,0],"split_type":[0,0,0,0,0,0,0],"sum_hessian":[7.6289E4,2.84E2,7.6005E4,2.73E2,1.1E1,1E1,1E0],"tree_param":{"num_deleted":"0","num_feature":"10","num_nodes":"7","size_leaf_vector":"1"}},{"base_weights":[5.8091857E-4,5.3169847E-1,-4.2260363E-5,-3.172794E-5,2.1704163E1,2.2790463E0,-0E0],"categories":[],"categories_nodes":[],"categories_segments":[],"categories_sizes":[],"default_left":[0,0,0,0,0,0,0],"id":7,"left_children":[1,3,-1,-1,5,-1,-1],"loss_changes":[8.069555E1,3.2169243E3,0E0,0E0,8.244844E3,0E0,0E0],"parents":[2147483647,0,0,1,1,4,4],"right_children":[2,4,-1,-1,6,-1,-1],"split_conditions":[7E0,2E0,-4.2260363E-5,-3.172794E-5,1.3333334E0,2.2790463E0,-0E0],"split_indices":[0,9,0,0,5,0,0],"split_type":[0,0,0,0,0,0,0],"sum_hessian":[7.6313E4,2.84E2,7.6029E4,2.78E2,6E0,1E0,5E0],"tree_param":{"num_deleted":"0","num_feature":"10","num_nodes":"7","size_leaf_vector":"1"}},{"base_weights":[5.5856624E-4,5.287565E-1,-4.0992523E-5,-3.0374542E-5,1.4736667E1,-2.4341133E-1,2.2448604E0,-3.2707497E-2,-0E0],"categories":[],"categories_nodes":[],"categories_segments":[],"categories_sizes":[],"default_left":[0,0,0,0,0,0,0,0,0],"id":8,"left_children":[1,3,-1,-1,5,7,-1,-1,-1],"loss_changes":[7.784265E1,2.0939697E3,0E0,0E0,9.027504E3,1.8440478E0,0E0,0E0,0E0],"parents":[2147483647,0,0,1,1,4,4,5,5],"right_children":[2,4,-1,-1,6,8,-1,-1,-1],"split_conditions":[7E0,2E0,-4.0992523E-5,-3.0374542E-5,2.3774E2,1.3333334E0,2.2448604E0,-3.2707497E-2,-0E0],"split_indices":[0,9,0,0,2,5,0,0,0],"split_type":[0,0,0,0,0,0,0,0,0],"sum_hessian":[7.6505E4,2.77E2,7.6228E4,2.68E2,9E0,8E0,1E0,1E0,7E0],"tree_param":{"num_deleted":"0","num_feature":"10","num_nodes":"9","size_leaf_vector":"1"}},{"base_weights":[5.441553E-4,4.9147436E-1,-3.9763083E-5,-2.991044E-5,1.2991521E1,-4.4057867E-1,2.2111876E0,-4.3955844E-2,-0E0],"categories":[],"categories_nodes":[],"categories_segments":[],"categories_sizes":[],"default_left":[0,0,0,0,0,0,0,0,0],"id":9,"left_children":[1,3,-1,-1,5,7,-1,-1,-1],"loss_changes":[7.01597E1,1.7865273E3,0E0,0E0,9.01059E3,4.499292E0,0E0,0E0,0E0],"parents":[2147483647,0,0,1,1,4,4,5,5],"right_children":[2,4,-1,-1,6,8,-1,-1,-1],"split_conditions":[7E0,2E0,-3.9763083E-5,-2.991044E-5,2.3774E2,1.3333334E0,2.2111876E0,-4.3955844E-2,-0E0],"split_indices":[0,9,0,0,2,5,0,0,0],"split_type":[0,0,0,0,0,0,0,0,0],"sum_hessian":[7.6385E4,2.89E2,7.6096E4,2.79E2,1E1,9E0,1E0,2E0,7E0],"tree_param":{"num_deleted":"0","num_feature":"10","num_nodes":"9","size_leaf_vector":"1"}},{"base_weights":[5.5818836E-4,4.8085648E-1,-3.8569968E-5,-2.9132354E-5,1.4078491E1,-4.7960243E-1,2.1780198E0,-4.3076728E-2,-0E0],"categories":[],"categories_nodes":[],"categories_segments":[],"categories_sizes":[],"default_left":[0,0,0,0,0,0,0,0,0],"id":10,"left_children":[1,3,-1,-1,5,7,-1,-1,-1],"loss_changes":[6.7618965E1,1.9145222E3,0E0,0E0,8.561744E3,4.115182E0,0E0,0E0,0E0],"parents":[2147483647,0,0,1,1,4,4,5,5],"right_children":[2,4,-1,-1,6,8,-1,-1,-1],"split_conditions":[7E0,2E0,-3.8569968E-5,-2.9132354E-5,2.3774E2,1.3333334E0,2.1780198E0,-4.3076728E-2,-0E0],"split_indices":[0,9,0,0,2,5,0,0,0],"split_type":[0,0,0,0,0,0,0,0,0],"sum_hessian":[7.6298E4,2.91E2,7.6007E4,2.82E2,9E0,8E0,1E0,2E0,6E0],"tree_param":{"num_deleted":"0","num_feature":"10","num_nodes":"9","size_leaf_vector":"1"}},{"base_weights":[-1.304054E-3,-1.6101932E-2,-3.741282E-5,-2.8029068E-5,-4.700277E-1,-0E0,-4.2215195E-2],"categories":[],"categories_nodes":[],"categories_segments":[],"categories_sizes":[],"default_left":[0,0,0,0,0,0,0],"id":11,"left_children":[1,3,-1,-1,5,-1,-1],"loss_changes":[6.2391996E-2,1.9146832E0,0E0,0E0,3.9520745E0,0E0,0E0],"parents":[2147483647,0,0,1,1,4,4],"right_children":[2,4,-1,-1,6,-1,-1],"split_conditions":[7E0,2E0,-3.741282E-5,-2.8029068E-5,5.882353E-2,-0E0,-4.2215195E-2],"split_indices":[0,9,0,0,6,0,0],"split_type":[0,0,0,0,0,0,0],"sum_hessian":[7.6103E4,2.84E2,7.5819E4,2.76E2,8E0,6E0,2E0],"tree_param":{"num_deleted":"0","num_feature":"10","num_nodes":"7","size_leaf_vector":"1"}},{"base_weights":[6.0638436E-4,4.8585865E-1,-3.6290578E-5,-2.7111533E-5,1.261984E1,-4.1472915E-1,2.1459827E0,-4.137089E-2,-0E0],"categories":[],"categories_nodes":[],"categories_segments":[],"categories_sizes":[],"default_left":[0,0,0,0,0,0,0,0,0],"id":12,"left_children":[1,3,-1,-1,5,7,-1,-1,-1],"loss_changes":[6.735998E1,1.6845873E3,0E0,0E0,8.483729E3,3.9851665E0,0E0,0E0,0E0],"parents":[2147483647,0,0,1,1,4,4,5,5],"right_children":[2,4,-1,-1,6,8,-1,-1,-1],"split_conditions":[7E0,2E0,-3.6290578E-5,-2.7111533E-5,2.3774E2,1.3333334E0,2.1459827E0,-4.137089E-2,-0E0],"split_indices":[0,9,0,0,2,5,0,0,0],"split_type":[0,0,0,0,0,0,0,0,0],"sum_hessian":[7.638E4,2.84E2,7.6096E4,2.74E2,1E1,9E0,1E0,2E0,7E0],"tree_param":{"num_deleted":"0","num_feature":"10","num_nodes":"9","size_leaf_vector":"1"}},{"base_weights":[-1.2009653E-3,-8.035796E-3,-3.520189E-5,-2.66131E-5,-2.2081849E-1,-2.9657604E-2,-0E0],"categories":[],"categories_nodes":[],"categories_segments":[],"categories_sizes":[],"default_left":[0,0,0,0,0,0,0],"id":13,"left_children":[1,3,-1,-1,5,-1,-1],"loss_changes":[1.3410024E-2,4.2027888E-1,0E0,0E0,1.5157608E0,0E0,0E0],"parents":[2147483647,0,0,1,1,4,4],"right_children":[2,4,-1,-1,6,-1,-1],"split_conditions":[7E0,2E0,-3.520189E-5,-2.66131E-5,1.3333334E0,-2.9657604E-2,-0E0],"split_indices":[0,9,0,0,5,0,0],"split_type":[0,0,0,0,0,0,0],"sum_hessian":[7.6104E4,2.9E2,7.5814E4,2.82E2,8E0,1E0,7E0],"tree_param":{"num_deleted":"0","num_feature":"10","num_nodes":"7","size_leaf_vector":"1"}},{"base_weights":[6.7690446E-4,4.777583E-1,-3.4145836E-5,-8.218863E-3,1.0841135E1,-9.847195E-2,-2.4950388E-5,2.1142378E0,-0E0,-1.170702E-2,-0E0],"categories":[],"categories_nodes":[],"categories_segments":[],"categories_sizes":[],"default_left":[0,0,0,0,0,0,0,0,0,0,0],"id":14,"left_children":[1,3,-1,5,7,9,-1,-1,-1,-1,-1],"loss_changes":[6.625701E1,1.461718E3,0E0,1.7533483E-1,8.405445E3,5.674783E-1,0E0,0E0,0E0,0E0,0E0],"parents":[2147483647,0,0,1,1,3,3,4,4,5,5],"right_children":[2,4,-1,6,8,10,-1,-1,-1,-1,-1],"split_conditions":[7E0,4.5E0,-3.4145836E-5,1.3333334E0,5E0,6E-1,-2.4950388E-5,2.1142378E0,-0E0,-1.170702E-2,-0E0],"split_indices":[0,4,0,5,4,8,0,0,0,0,0],"split_type":[0,0,0,0,0,0,0,0,0,0,0],"sum_hessian":[7.6457E4,2.89E2,7.6168E4,2.77E2,1.2E1,1.9E1,2.58E2,1E0,1.1E1,4E0,1.5E1],"tree_param":{"num_deleted":"0","num_feature":"10","num_nodes":"11","size_leaf_vector":"1"}},{"base_weights":[6.8544666E-4,4.722445E-1,-3.312172E-5,-8.168535E-3,8.676052E0,-1.2059038E-1,-2.41775E-5,2.0825243E0,-0E0,-1.4361232E-2,-0E0],"categories":[],"categories_nodes":[],"categories_segments":[],"categories_sizes":[],"default_left":[0,0,0,0,0,0,0,0,0,0,0],"id":15,"left_children":[1,3,-1,5,7,9,-1,-1,-1,-1,-1],"loss_changes":[6.450817E1,1.1399492E3,0E0,2.1455823E-1,8.433192E3,6.839717E-1,0E0,0E0,0E0,0E0,0E0],"parents":[2147483647,0,0,1,1,3,3,4,4,5,5],"right_children":[2,4,-1,6,8,10,-1,-1,-1,-1,-1],"split_conditions":[7E0,9E0,-3.312172E-5,1.3333334E0,1E1,6E-1,-2.41775E-5,2.0825243E0,-0E0,-1.4361232E-2,-0E0],"split_indices":[0,3,0,5,3,8,0,0,0,0,0],"split_type":[0,0,0,0,0,0,0,0,0,0,0],"sum_hessian":[7.6387E4,2.88E2,7.6099E4,2.73E2,1.5E1,1.5E1,2.58E2,1E0,1.4E1,3E0,1.2E1],"tree_param":{"num_deleted":"0","num_feature":"10","num_nodes":"11","size_leaf_vector":"1"}},{"base_weights":[6.693205E-4,-1.1233252E-3,9.162805E-2,-3.207626E-5,-3.395916E-3,5.468893E0,-3.0412526E-5,-2.4805022E-2,-3.0212404E-5,2.0512865E0,-0E0,-2.0699257E-3,-4.3423815E-6],"categories":[],"categories_nodes":[],"categories_segments":[],"categories_sizes":[],"default_left":[0,0,0,0,0,0,0,0,0,0,0,0,0],"id":16,"left_children":[1,3,5,-1,7,9,-1,11,-1,-1,-1,-1,-1],"loss_changes":[1.2443864E1,8.747406E-3,7.3533765E2,0E0,8.413207E-2,8.602895E3,0E0,1.7398247E-1,0E0,0E0,0E0,0E0,0E0],"parents":[2147483647,0,0,1,1,2,2,4,4,5,5,7,7],"right_children":[2,4,6,-1,8,10,-1,12,-1,-1,-1,-1,-1],"split_conditions":[4.5E0,2E0,5E0,-3.207626E-5,1.3333334E0,1.3333334E0,-3.0412526E-5,9.502E1,-3.0212404E-5,2.0512865E0,-0E0,-2.0699257E-3,-4.3423815E-6],"split_indices":[4,9,4,0,5,5,0,2,0,0,0,0,0],"split_type":[0,0,0,0,0,0,0,0,0,0,0,0,0],"sum_hessian":[7.6259E4,7.4785E4,1.474E3,7.309E4,1.695E3,2.4E1,1.45E3,1.65E2,1.53E3,1E0,2.3E1,5.7E1,1.08E2],"tree_param":{"num_deleted":"0","num_feature":"10","num_nodes":"13","size_leaf_vector":"1"}},{"base_weights":[6.794847E-4,4.5143574E-1,-3.1114603E-5,-1.4930841E-2,9.620418E0,-1.6661443E-1,-2.229685E-5,2.020517E0,-0E0,-1.43037895E-2,-0E0],"categories":[],"categories_nodes":[],"categories_segments":[],"categories_sizes":[],"default_left":[0,0,0,0,0,0,0,0,0,0,0],"id":17,"left_children":[1,3,-1,5,7,9,-1,-1,-1,-1,-1],"loss_changes":[5.8942955E1,1.236899E3,0E0,5.771001E-1,7.7764653E3,1.1801641E0,0E0,0E0,0E0,0E0,0E0],"parents":[2147483647,0,0,1,1,3,3,4,4,5,5],"right_children":[2,4,-1,6,8,10,-1,-1,-1,-1,-1],"split_conditions":[7E0,9E0,-3.1114603E-5,1.3333334E0,1E1,6E-1,-2.229685E-5,2.020517E0,-0E0,-1.43037895E-2,-0E0],"split_indices":[0,3,0,5,3,8,0,0,0,0,0],"split_type":[0,0,0,0,0,0,0,0,0,0,0],"sum_hessian":[7.6115E4,2.88E2,7.5827E4,2.75E2,1.3E1,2.2E1,2.53E2,1E0,1.2E1,7E0,1.5E1],"tree_param":{"num_deleted":"0","num_feature":"10","num_nodes":"11","size_leaf_vector":"1"}},{"base_weights":[7.020204E-4,4.695217E-1,-3.0188514E-5,-1.4435501E-4,1.30665865E1,-2.1320428E-5,1.8156215E-3,-2.1275319E-1,1.9902095E0,1.21644895E-4,-0E0,-0E0,-2.8576113E-2],"categories":[],"categories_nodes":[],"categories_segments":[],"categories_sizes":[],"default_left":[0,0,0,0,0,0,0,0,0,0,0,0,0],"id":18,"left_children":[1,3,-1,5,7,-1,9,11,-1,-1,-1,-1,-1],"loss_changes":[6.1324753E1,1.6460714E3,0E0,1.8938235E-4,7.095127E3,0E0,1.2807363E-4,1.4072787E0,0E0,0E0,0E0,0E0,0E0],"parents":[2147483647,0,0,1,1,3,3,4,4,6,6,7,7],"right_children":[2,4,-1,6,8,-1,10,12,-1,-1,-1,-1,-1],"split_conditions":[7E0,2E0,-3.0188514E-5,6E-1,2.3774E2,-2.1320428E-5,1.0869565E0,5.882353E-2,1.9902095E0,1.21644895E-4,-0E0,-0E0,-2.8576113E-2],"split_indices":[0,9,0,6,2,0,7,6,0,0,0,0,0],"split_type":[0,0,0,0,0,0,0,0,0,0,0,0,0],"sum_hessian":[7.6511E4,2.77E2,7.6234E4,2.68E2,9E0,2.48E2,2E1,8E0,1E0,1.1E1,9E0,7E0,1E0],"tree_param":{"num_deleted":"0","num_feature":"10","num_nodes":"13","size_leaf_vector":"1"}},{"base_weights":[7.1304373E-4,4.3874416E-1,-2.9277251E-5,-1.7931979E-4,1.17002535E1,2.4292897E-3,-2.1578137E-5,-1.8876353E-1,1.9603561E0,1.0624932E-4,-0E0,-2.814747E-2,-0E0],"categories":[],"categories_nodes":[],"categories_segments":[],"categories_sizes":[],"default_left":[0,0,0,0,0,0,0,0,0,0,0,0,0],"id":19,"left_children":[1,3,-1,5,7,9,-1,11,-1,-1,-1,-1,-1],"loss_changes":[5.643502E1,1.4494536E3,0E0,2.2935735E-4,7.0344946E3,6.273753E-5,0E0,1.4043059E0,0E0,0E0,0E0,0E0,0E0],"parents":[2147483647,0,0,1,1,3,3,4,4,5,5,7,7],"right_children":[2,4,-1,6,8,10,-1,12,-1,-1,-1,-1,-1],"split_conditions":[7E0,2E0,-2.9277251E-5,1.3333334E0,2.3774E2,1.1102E2,-2.1578137E-5,1.3333334E0,1.9603561E0,1.0624932E-4,-0E0,-2.814747E-2,-0E0],"split_indices":[0,9,0,5,2,2,0,5,0,0,0,0,0],"split_type":[0,0,0,0,0,0,0,0,0,0,0,0,0],"sum_hessian":[7.6222E4,2.92E2,7.593E4,2.82E2,1E1,1.6E1,2.66E2,9E0,1E0,1.2E1,4E0,1E0,8E0],"tree_param":{"num_deleted":"0","num_feature":"10","num_nodes":"13","size_leaf_vector":"1"}},{"base_weights":[-9.95646E-4,-1.3277181E-2,-2.8400462E-5,-1.574561E-1,-2.1459158E-5,-4.5022547E-1,-0E0,4.7448836E-4,-3.796701E-2],"categories":[],"categories_nodes":[],"categories_segments":[],"categories_sizes":[],"default_left":[0,0,0,0,0,0,0,0,0],"id":20,"left_children":[1,3,-1,5,-1,7,-1,-1,-1],"loss_changes":[4.447887E-2,5.183618E-1,0E0,1.051398E0,0E0,3.1848576E0,0E0,0E0,0E0],"parents":[2147483647,0,0,1,1,3,3,5,5],"right_children":[2,4,-1,6,-1,8,-1,-1,-1],"split_conditions":[7E0,1.3333334E0,-2.8400462E-5,6E-1,-2.1459158E-5,3.846154E-2,-0E0,4.7448836E-4,-3.796701E-2],"split_indices":[0,5,0,8,0,8,0,0,0],"split_type":[0,0,0,0,0,0,0,0,0],"sum_hessian":[7.635E4,2.94E2,7.6056E4,2.2E1,2.72E2,7E0,1.5E1,5E0,2E0],"tree_param":{"num_deleted":"0","num_feature":"10","num_nodes":"9","size_leaf_vector":"1"}},{"base_weights":[7.169687E-4,4.3333158E-1,-2.7548638E-5,-1.2857112E-4,9.610383E0,-1.9598641E-5,1.2415104E-3,-3.110886E-1,1.9315205E0,3.242486E-4,-0E0,-0E0,-3.7207674E-2],"categories":[],"categories_nodes":[],"categories_segments":[],"categories_sizes":[],"default_left":[0,0,0,0,0,0,0,0,0,0,0,0,0],"id":21,"left_children":[1,3,-1,5,7,-1,9,11,-1,-1,-1,-1,-1],"loss_changes":[5.4104473E1,1.1465934E3,0E0,1.404066E-4,7.091093E3,0E0,5.47103E-4,3.4533904E0,0E0,0E0,0E0,0E0,0E0],"parents":[2147483647,0,0,1,1,3,3,4,4,6,6,7,7],"right_children":[2,4,-1,6,8,-1,10,12,-1,-1,-1,-1,-1],"split_conditions":[7E0,2E0,-2.7548638E-5,6E-1,2.3774E2,-1.9598641E-5,3.846154E-2,5.882353E-2,1.9315205E0,3.242486E-4,-0E0,-0E0,-3.7207674E-2],"split_indices":[0,9,0,6,2,0,8,6,0,0,0,0,0],"split_type":[0,0,0,0,0,0,0,0,0,0,0,0,0],"sum_hessian":[7.6417E4,2.87E2,7.613E4,2.75E2,1.2E1,2.52E2,2.3E1,1.1E1,1E0,4E0,1.9E1,9E0,2E0],"tree_param":{"num_deleted":"0","num_feature":"10","num_nodes":"13","size_leaf_vector":"1"}},{"base_weights":[7.2331325E-4,4.391268E-1,-2.6724818E-5,-9.7560456E-5,1.2308194E1,-1.881185E-5,1.2912817E-3,-4.06064E-1,1.9025477E0,3.164666E-4,-0E0,-0E0,-3.6463518E-2],"categories":[],"categories_nodes":[],"categories_segments":[],"categories_sizes":[],"default_left":[0,0,0,0,0,0,0,0,0,0,0,0,0],"id":22,"left_children":[1,3,-1,5,7,-1,9,11,-1,-1,-1,-1,-1],"loss_changes":[5.401346E1,1.4609233E3,0E0,1.336794E-4,6.5303184E3,0E0,5.180448E-4,2.947969E0,0E0,0E0,0E0,0E0,0E0],"parents":[2147483647,0,0,1,1,3,3,4,4,6,6,7,7],"right_children":[2,4,-1,6,8,-1,10,12,-1,-1,-1,-1,-1],"split_conditions":[7E0,2E0,-2.6724818E-5,6E-1,2.3774E2,-1.881185E-5,3.846154E-2,5.882353E-2,1.9025477E0,3.164666E-4,-0E0,-0E0,-3.6463518E-2],"split_indices":[0,9,0,6,2,0,8,6,0,0,0,0,0],"split_type":[0,0,0,0,0,0,0,0,0,0,0,0,0],"sum_hessian":[7.6265E4,2.79E2,7.5986E4,2.7E2,9E0,2.48E2,2.2E1,8E0,1E0,4E0,1.8E1,6E0,2E0],"tree_param":{"num_deleted":"0","num_feature":"10","num_nodes":"13","size_leaf_vector":"1"}},{"base_weights":[7.2411436E-4,4.3888685E-1,-2.5925783E-5,-6.371306E-5,1.0104138E1,1.7532652E-3,-1.824243E-5,3.0315136E1,-0E0,3.0887141E-4,-0E0,-3.5734247E-2,1.8740095E0],"categories":[],"categories_nodes":[],"categories_segments":[],"categories_sizes":[],"default_left":[0,0,0,0,0,0,0,0,0,0,0,0,0],"id":23,"left_children":[1,3,-1,5,7,9,-1,11,-1,-1,-1,-1,-1],"loss_changes":[5.3180363E1,1.1719597E3,0E0,1.4866043E-4,2.4509065E3,4.7160385E-4,0E0,4.1324746E3,0E0,0E0,0E0,0E0,0E0],"parents":[2147483647,0,0,1,1,3,3,4,4,5,5,7,7],"right_children":[2,4,-1,6,8,10,-1,12,-1,-1,-1,-1,-1],"split_conditions":[7E0,2E0,-2.5925783E-5,1.3333334E0,1.3333334E0,3.846154E-2,-1.824243E-5,2E0,-0E0,3.0887141E-4,-0E0,-3.5734247E-2,1.8740095E0],"split_indices":[0,9,0,5,5,8,0,1,0,0,0,0,0],"split_type":[0,0,0,0,0,0,0,0,0,0,0,0,0],"sum_hessian":[7.6351E4,2.75E2,7.6076E4,2.64E2,1.1E1,1.8E1,2.46E2,3E0,8E0,4E0,1.4E1,2E0,1E0],"tree_param":{"num_deleted":"0","num_feature":"10","num_nodes":"13","size_leaf_vector":"1"}},{"base_weights":[7.230225E-4,4.2301264E-1,-2.5143298E-5,-2.1648816E-4,1.085895E1,-0E0,-1.8106259E-5,-3.5115108E-1,1.8458993E0,1.844617E-5,-0E0,-3.5019565E-2,-0E0],"categories":[],"categories_nodes":[],"categories_segments":[],"categories_sizes":[],"default_left":[0,0,0,0,0,0,0,0,0,0,0,0,0],"id":24,"left_children":[1,3,-1,5,7,9,-1,11,-1,-1,-1,-1,-1],"loss_changes":[5.0474545E1,1.2466238E3,0E0,8.050344E-5,6.2760244E3,3.4026116E-6,0E0,2.8548288E0,0E0,0E0,0E0,0E0,0E0],"parents":[2147483647,0,0,1,1,3,3,4,4,5,5,7,7],"right_children":[2,4,-1,6,8,10,-1,12,-1,-1,-1,-1,-1],"split_conditions":[7E0,2E0,-2.5143298E-5,1.3333334E0,2.3774E2,1.0869565E0,-1.8106259E-5,1.3333334E0,1.8458993E0,1.844617E-5,-0E0,-3.5019565E-2,-0E0],"split_indices":[0,9,0,5,2,7,0,5,0,0,0,0,0],"split_type":[0,0,0,0,0,0,0,0,0,0,0,0,0],"sum_hessian":[7.6498E4,2.81E2,7.6217E4,2.71E2,1E1,1.6E1,2.55E2,9E0,1E0,8E0,8E0,2E0,7E0],"tree_param":{"num_deleted":"0","num_feature":"10","num_nodes":"13","size_leaf_vector":"1"}},{"base_weights":[7.254627E-4,-8.584031E-4,8.219114E-2,-2.438406E-5,-2.7289726E-3,5.508737E0,-2.2789742E-5,-2.2556633E-5,-1.4843143E-2,-0E0,1.818211E0,-1.1519387E-3,-4.824476E-6],"categories":[],"categories_nodes":[],"categories_segments":[],"categories_sizes":[],"default_left":[0,0,0,0,0,0,0,0,0,0,0,0,0],"id":25,"left_children":[1,3,5,-1,7,9,-1,-1,11,-1,-1,-1,-1],"loss_changes":[9.877891E0,6.0438253E-3,6.57754E2,0E0,3.993597E-2,6.6788086E3,0E0,0E0,7.775606E-2,0E0,0E0,0E0,0E0],"parents":[2147483647,0,0,1,1,2,2,4,4,5,5,8,8],"right_children":[2,4,6,-1,8,10,-1,-1,12,-1,-1,-1,-1],"split_conditions":[4.5E0,2E0,1E1,-2.438406E-5,7.5E-1,6E-1,-2.2789742E-5,-2.2556633E-5,9.502E1,-0E0,1.818211E0,-1.1519387E-3,-4.824476E-6],"split_indices":[4,9,3,0,6,6,0,0,2,0,0,0,0],"split_type":[0,0,0,0,0,0,0,0,0,0,0,0,0],"sum_hessian":[7.649E4,7.5031E4,1.459E3,7.3299E4,1.732E3,2.1E1,1.438E3,1.497E3,2.35E2,2E1,1E0,8.7E1,1.48E2],"tree_param":{"num_deleted":"0","num_feature":"10","num_nodes":"13","size_leaf_vector":"1"}},{"base_weights":[7.307946E-4,4.1773972E-1,-2.3625218E-5,-1.6510543E-4,1.1585814E1,-0E0,-1.6659389E-5,-3.8196683E-1,1.7909378E0,9.465334E-5,-0E0,-3.4296133E-2,-0E0],"categories":[],"categories_nodes":[],"categories_segments":[],"categories_sizes":[],"default_left":[0,0,0,0,0,0,0,0,0,0,0,0,0],"id":26,"left_children":[1,3,-1,5,7,9,-1,11,-1,-1,-1,-1,-1],"loss_changes":[4.834469E1,1.2939728E3,0E0,7.040423E-5,5.7866865E3,3.981891E-5,0E0,2.6076617E0,0E0,0E0,0E0,0E0,0E0],"parents":[2147483647,0,0,1,1,3,3,4,4,5,5,7,7],"right_children":[2,4,-1,6,8,10,-1,12,-1,-1,-1,-1,-1],"split_conditions":[7E0,2E0,-2.3625218E-5,1.3333334E0,2.3774E2,3.846154E-2,-1.6659389E-5,1.3333334E0,1.7909378E0,9.465334E-5,-0E0,-3.4296133E-2,-0E0],"split_indices":[0,9,0,5,2,8,0,5,0,0,0,0,0],"split_type":[0,0,0,0,0,0,0,0,0,0,0,0,0],"sum_hessian":[7.6289E4,2.76E2,7.6013E4,2.67E2,9E0,1.6E1,2.51E2,8E0,1E0,3E0,1.3E1,2E0,6E0],"tree_param":{"num_deleted":"0","num_feature":"10","num_nodes":"13","size_leaf_vector":"1"}},{"base_weights":[7.5266033E-4,4.1035786E-1,-2.2913688E-5,-6.5440433E-3,9.799529E0,-8.5248396E-2,-1.6413136E-5,1.7640736E0,-0E0,-9.108407E-3,-0E0],"categories":[],"categories_nodes":[],"categories_segments":[],"categories_sizes":[],"default_left":[0,0,0,0,0,0,0,0,0,0,0],"id":27,"left_children":[1,3,-1,5,7,9,-1,-1,-1,-1,-1],"loss_changes":[4.7488113E1,1.104894E3,0E0,1.192818E-1,5.763088E3,3.3009475E-1,0E0,0E0,0E0,0E0,0E0],"parents":[2147483647,0,0,1,1,3,3,4,4,5,5],"right_children":[2,4,-1,6,8,10,-1,-1,-1,-1,-1],"split_conditions":[7E0,6E0,-2.2913688E-5,1.3333334E0,1E1,3.75E-1,-1.6413136E-5,1.7640736E0,-0E0,-9.108407E-3,-0E0],"split_indices":[0,3,0,5,3,8,0,0,0,0,0],"split_type":[0,0,0,0,0,0,0,0,0,0,0],"sum_hessian":[7.6385E4,2.81E2,7.6104E4,2.7E2,1.1E1,1.7E1,2.53E2,1E0,1E1,4E0,1.3E1],"tree_param":{"num_deleted":"0","num_feature":"10","num_nodes":"11","size_leaf_vector":"1"}},{"base_weights":[7.1026443E-4,3.8517395E-1,-2.2224027E-5,-6.280035E-3,9.364851E0,-0E0,-1.6731568E-1,-3.0569375E-1,1.7376126E0,1.0086448E-4,-1.5408374E-5,-2.4975117E-2,-0E0,-3.3519126E-2,-0E0],"categories":[],"categories_nodes":[],"categories_segments":[],"categories_sizes":[],"default_left":[0,0,0,0,0,0,0,0,0,0,0,0,0,0,0],"id":28,"left_children":[1,3,-1,5,7,9,11,13,-1,-1,-1,-1,-1,-1,-1],"loss_changes":[4.2582245E1,1.009837E3,0E0,2.690602E-1,5.658173E3,2.915028E-4,1.1061802E0,2.7171712E0,0E0,0E0,0E0,0E0,0E0,0E0,0E0],"parents":[2147483647,0,0,1,1,3,3,4,4,5,5,6,6,7,7],"right_children":[2,4,-1,6,8,10,12,14,-1,-1,-1,-1,-1,-1,-1],"split_conditions":[7E0,2E0,-2.2224027E-5,6E0,2.3774E2,1.3333334E0,9E0,1.3333334E0,1.7376126E0,1.0086448E-4,-1.5408374E-5,-2.4975117E-2,-0E0,-3.3519126E-2,-0E0],"split_indices":[0,9,0,3,2,5,3,5,0,0,0,0,0,0,0],"split_type":[0,0,0,0,0,0,0,0,0,0,0,0,0,0,0],"sum_hessian":[7.6258E4,2.86E2,7.5972E4,2.75E2,1.1E1,2.66E2,9E0,1E1,1E0,1.9E1,2.47E2,1E0,8E0,2E0,8E0],"tree_param":{"num_deleted":"0","num_feature":"10","num_nodes":"15","size_leaf_vector":"1"}},{"base_weights":[-7.6180283E-4,-1.182085E-2,-2.155515E-5,-6.0511897E-3,-2.2910556E-1,-0E0,-1.8301812E-1,-2.395487E-2,-0E0,1.04697974E-4,-1.5365647E-5,-0E0,-2.460049E-2],"categories":[],"categories_nodes":[],"categories_segments":[],"categories_sizes":[],"default_left":[0,0,0,0,0,0,0,0,0,0,0,0,0],"id":29,"left_children":[1,3,-1,5,7,9,11,-1,-1,-1,-1,-1,-1],"loss_changes":[3.5335228E-2,3.374054E-1,0E0,2.9109806E-1,9.077653E-1,2.9883353E-4,1.0433931E0,0E0,0E0,0E0,0E0,0E0,0E0],"parents":[2147483647,0,0,1,1,3,3,4,4,5,5,6,6],"right_children":[2,4,-1,6,8,10,12,-1,-1,-1,-1,-1,-1],"split_conditions":[7E0,2E0,-2.155515E-5,6E0,1.3333334E0,1.3333334E0,3.868E2,-2.395487E-2,-0E0,1.04697974E-4,-1.5365647E-5,-0E0,-2.460049E-2],"split_indices":[0,9,0,3,5,5,2,0,0,0,0,0,0],"split_type":[0,0,0,0,0,0,0,0,0,0,0,0,0],"sum_hessian":[7.643E4,2.88E2,7.6142E4,2.82E2,6E0,2.74E2,8E0,1E0,5E0,1.8E1,2.56E2,7E0,1E0],"tree_param":{"num_deleted":"0","num_feature":"10","num_nodes":"13","size_leaf_vector":"1"}},{"base_weights":[7.5544085E-4,-7.399369E-4,7.677542E-2,-7.1702135E-4,-8.565036E-2,4.9611363E0,-1.8937642E-5,-2.0931273E-5,-1.4642924E-3,-0E0,-2.0245518E-1,1.7119079E0,-0E0,-2.3176668E-4,-1.8618204E-5,-1.616137E-2,-0E0],"categories":[],"categories_nodes":[],"categories_segments":[],"categories_sizes":[],"default_left":[0,0,0,0,0,0,0,0,0,0,0,0,0,0,0,0,0],"id":30,"left_children":[1,3,5,7,9,11,-1,-1,13,-1,15,-1,-1,-1,-1,-1,-1],"loss_changes":[8.679972E0,1.3687658E-1,5.574142E2,8.622259E-4,1.8852107E-1,5.946411E3,0E0,0E0,8.420879E-3,0E0,5.4272807E-1,0E0,0E0,0E0,0E0,0E0,0E0],"parents":[2147483647,0,0,1,1,2,2,3,3,4,4,5,5,8,8,10,10],"right_children":[2,4,6,8,10,12,-1,-1,14,-1,16,-1,-1,-1,-1,-1,-1],"split_conditions":[4.5E0,4E0,1E1,2E0,4.3333335E0,1.3333334E0,-1.8937642E-5,-2.0931273E-5,1.3333334E0,-0E0,4.6666665E0,1.7119079E0,-0E0,-2.3176668E-4,-1.8618204E-5,-1.616137E-2,-0E0],"split_indices":[4,4,3,9,7,5,0,0,5,0,7,0,0,0,0,0,0],"split_type":[0,0,0,0,0,0,0,0,0,0,0,0,0,0,0,0,0],"sum_hessian":[7.6287E4,7.4815E4,1.472E3,7.4797E4,1.8E1,2.2E1,1.45E3,7.3045E4,1.752E3,1.1E1,7E0,1E0,2.1E1,1.93E2,1.559E3,2E0,5E0],"tree_param":{"num_deleted":"0","num_feature":"10","num_nodes":"17","size_leaf_vector":"1"}},{"base_weights":[-7.163092E-4,-2.0287573E-5,-2.1177414E-3,-1.6037745E-2,-6.101574E-4,-4.1750178E-2,-0E0,-1.8749675E-5,-0E0,-5.8595615E-4,-1.5610002E-2],"categories":[],"categories_nodes":[],"categories_segments":[],"categories_sizes":[],"default_left":[0,0,0,0,0,0,0,0,0,0,0],"id":31,"left_children":[1,-1,3,5,7,9,-1,-1,-1,-1,-1],"loss_changes":[4.005607E-3,0E0,4.1387822E-2,7.734606E-2,5.5411365E-6,7.1208197E-1,0E0,0E0,0E0,0E0,0E0],"parents":[2147483647,0,0,2,2,3,3,4,4,5,5],"right_children":[2,-1,4,6,8,10,-1,-1,-1,-1,-1],"split_conditions":[2E0,-2.0287573E-5,1.3333334E0,9.502E1,7.5E-1,9.33E1,-0E0,-1.8749675E-5,-0E0,-5.8595615E-4,-1.5610002E-2],"split_indices":[9,0,5,2,6,2,0,0,0,0,0],"split_type":[0,0,0,0,0,0,0,0,0,0,0],"sum_hessian":[7.6356E4,7.4305E4,2.051E3,1.93E2,1.858E3,7.2E1,1.21E2,1.785E3,7.3E1,7E1,2E0],"tree_param":{"num_deleted":"0","num_feature":"10","num_nodes":"11","size_leaf_vector":"1"}},{"base_weights":[7.767204E-4,3.6707112E-1,-1.9634055E-5,-5.7025966E-3,1.0068797E1,-0E0,-1.32037E-1,-1.5585046E-1,1.6862291E0,1.1146391E-4,-1.3793002E-5,-2.398876E-2,-0E0,-2.3221295E-2,-0E0],"categories":[],"categories_nodes":[],"categories_segments":[],"categories_sizes":[],"default_left":[0,0,0,0,0,0,0,0,0,0,0,0,0,0,0],"id":32,"left_children":[1,3,-1,5,7,9,11,13,-1,-1,-1,-1,-1,-1,-1],"loss_changes":[4.0004673E1,1.0751785E3,0E0,1.9987209E-1,5.203652E3,3.032329E-4,1.0695962E0,9.553922E-1,0E0,0E0,0E0,0E0,0E0,0E0,0E0],"parents":[2147483647,0,0,1,1,3,3,4,4,5,5,6,6,7,7],"right_children":[2,4,-1,6,8,10,12,14,-1,-1,-1,-1,-1,-1,-1],"split_conditions":[7E0,2E0,-1.9634055E-5,6E0,2.2204E2,1.3333334E0,9E0,1.3333334E0,1.6862291E0,1.1146391E-4,-1.3793002E-5,-2.398876E-2,-0E0,-2.3221295E-2,-0E0],"split_indices":[0,9,0,3,2,5,3,5,0,0,0,0,0,0,0],"split_type":[0,0,0,0,0,0,0,0,0,0,0,0,0,0,0],"sum_hessian":[7.6239E4,2.96E2,7.5943E4,2.86E2,1E1,2.75E2,1.1E1,9E0,1E0,1.7E1,2.58E2,1E0,1E1,1E0,8E0],"tree_param":{"num_deleted":"0","num_feature":"10","num_nodes":"15","size_leaf_vector":"1"}},{"base_weights":[7.511338E-4,3.6599988E-1,-1.9060617E-5,-1.7693957E-2,7.3826537E0,-8.8062346E-2,-1.3255721E-5,1.6609358E0,-0E0,6.0343402E-5,-2.4319269E-2],"categories":[],"categories_nodes":[],"categories_segments":[],"categories_sizes":[],"default_left":[0,0,0,0,0,0,0,0,0,0,0],"id":33,"left_children":[1,3,-1,5,7,9,-1,-1,-1,-1,-1],"loss_changes":[3.870089E1,7.7892645E2,0E0,3.2496136E-1,5.312907E3,3.5320258E0,0E0,0E0,0E0,0E0,0E0],"parents":[2147483647,0,0,1,1,3,3,4,4,5,5],"right_children":[2,4,-1,6,8,10,-1,-1,-1,-1,-1],"split_conditions":[7E0,2E0,-1.9060617E-5,6E-1,1E1,3.846154E-2,-1.3255721E-5,1.6609358E0,-0E0,6.0343402E-5,-2.4319269E-2],"split_indices":[0,1,0,8,3,8,0,0,0,0,0],"split_type":[0,0,0,0,0,0,0,0,0,0,0],"sum_hessian":[7.6348E4,2.88E2,7.606E4,2.74E2,1.4E1,5.2E1,2.22E2,1E0,1.3E1,4.7E1,5E0],"tree_param":{"num_deleted":"0","num_feature":"10","num_nodes":"11","size_leaf_vector":"1"}},{"base_weights":[7.053851E-4,3.4289968E-1,-1.848676E-5,-1.7364636E-2,9.622188E0,-0E0,-4.068483E-1,-3.1240487E-1,1.6360217E0,-1.2724956E-5,6.440281E-5,-4.897966E-2,-0E0,-1.5593229E-2,-0E0],"categories":[],"categories_nodes":[],"categories_segments":[],"categories_sizes":[],"default_left":[0,0,0,0,0,0,0,0,0,0,0,0,0,0,0],"id":34,"left_children":[1,3,-1,5,7,9,11,13,-1,-1,-1,-1,-1,-1,-1],"loss_changes":[3.4559467E1,9.8396844E2,0E0,1.9006718E0,4.930451E3,1.644423E-4,6.0103827E0,6.450242E-1,0E0,0E0,0E0,0E0,0E0,0E0,0E0],"parents":[2147483647,0,0,1,1,3,3,4,4,5,5,6,6,7,7],"right_children":[2,4,-1,6,8,10,12,14,-1,-1,-1,-1,-1,-1,-1],"split_conditions":[7E0,2E0,-1.848676E-5,2E0,2.3774E2,5.882353E-2,9E0,2E0,1.6360217E0,-1.2724956E-5,6.440281E-5,-4.897966E-2,-0E0,-1.5593229E-2,-0E0],"split_indices":[0,9,0,1,2,6,3,1,0,0,0,0,0,0,0],"split_type":[0,0,0,0,0,0,0,0,0,0,0,0,0,0,0],"sum_hessian":[7.634E4,2.93E2,7.6047E4,2.83E2,1E1,2.72E2,1.1E1,9E0,1E0,2.47E2,2.5E1,2E0,9E0,5E0,4E0],"tree_param":{"num_deleted":"0","num_feature":"10","num_nodes":"15","size_leaf_vector":"1"}},{"base_weights":[7.0371316E-4,3.4832856E-1,-1.7926384E-5,-1.7681113E-2,1.1585701E1,-0E0,-4.3707648E-1,-3.8259774E-1,1.6114813E0,2.2636992E-5,-1.2549848E-5,-4.800006E-2,-0E0,-3.0940378E-2,-0E0],"categories":[],"categories_nodes":[],"categories_segments":[],"categories_sizes":[],"default_left":[0,0,0,0,0,0,0,0,0,0,0,0,0,0,0],"id":35,"left_children":[1,3,-1,5,7,9,11,13,-1,-1,-1,-1,-1,-1,-1],"loss_changes":[3.4569195E1,1.1735629E3,0E0,2.0147982E0,4.5639414E3,5.4392673E-5,5.5786257E0,2.0199754E0,0E0,0E0,0E0,0E0,0E0,0E0,0E0],"parents":[2147483647,0,0,1,1,3,3,4,4,5,5,6,6,7,7],"right_children":[2,4,-1,6,8,10,12,14,-1,-1,-1,-1,-1,-1,-1],"split_conditions":[7E0,2E0,-1.7926384E-5,2E0,2.2204E2,1.3333334E0,9E0,1.3333334E0,1.6114813E0,2.2636992E-5,-1.2549848E-5,-4.800006E-2,-0E0,-3.0940378E-2,-0E0],"split_indices":[0,9,0,1,2,5,3,5,0,0,0,0,0,0,0],"split_type":[0,0,0,0,0,0,0,0,0,0,0,0,0,0,0],"sum_hessian":[7.6343E4,2.84E2,7.6059E4,2.76E2,8E0,2.66E2,1E1,7E0,1E0,1.8E1,2.48E2,2E0,8E0,2E0,5E0],"tree_param":{"num_deleted":"0","num_feature":"10","num_nodes":"15","size_leaf_vector":"1"}},{"base_weights":[7.0132804E-4,3.3408928E-1,-1.7387883E-5,-1.6439734E-2,1.1408165E1,-0E0,-3.90685E-1,-3.80891E-1,1.5873091E0,1.6171204E-4,-1.234264E-5,-4.704006E-2,-0E0,5.1102284E-5,-4.738578E-2],"categories":[],"categories_nodes":[],"categories_segments":[],"categories_sizes":[],"default_left":[0,0,0,0,0,0,0,0,0,0,0,0,0,0,0],"id":36,"left_children":[1,3,-1,5,7,9,11,13,-1,-1,-1,-1,-1,-1,-1],"loss_changes":[3.269136E1,1.1386896E3,0E0,1.7545917E0,4.428845E3,6.242918E-4,5.544274E0,3.8292012E0,0E0,0E0,0E0,0E0,0E0,0E0,0E0],"parents":[2147483647,0,0,1,1,3,3,4,4,5,5,6,6,7,7],"right_children":[2,4,-1,6,8,10,12,14,-1,-1,-1,-1,-1,-1,-1],"split_conditions":[7E0,2E0,-1.7387883E-5,5E-1,2.3774E2,1.3333334E0,4.5E0,2.2204E2,1.5873091E0,1.6171204E-4,-1.234264E-5,-4.704006E-2,-0E0,5.1102284E-5,-4.738578E-2],"split_indices":[0,9,0,4,2,5,4,2,0,0,0,0,0,0,0],"split_type":[0,0,0,0,0,0,0,0,0,0,0,0,0,0,0],"sum_hessian":[7.6473E4,2.92E2,7.6181E4,2.84E2,8E0,2.73E2,1.1E1,7E0,1E0,1.9E1,2.54E2,2E0,9E0,6E0,1E0],"tree_param":{"num_deleted":"0","num_feature":"10","num_nodes":"15","size_leaf_vector":"1"}},{"base_weights":[6.793419E-4,3.2709467E-1,-1.6862705E-5,-3.3179875E-2,9.477075E0,-1.64764E-2,-4.6099257E-2,1.5634995E0,-0E0,-0E0,-1.9437566E-2],"categories":[],"categories_nodes":[],"categories_segments":[],"categories_sizes":[],"default_left":[0,0,0,0,0,0,0,0,0,0,0],"id":37,"left_children":[1,3,-1,5,7,9,-1,-1,-1,-1,-1],"loss_changes":[3.1016146E1,9.572452E2,0E0,6.8510213E0,4.4443257E3,2.863123E0,0E0,0E0,0E0,0E0,0E0],"parents":[2147483647,0,0,1,1,3,3,4,4,5,5],"right_children":[2,4,-1,6,8,10,-1,-1,-1,-1,-1],"split_conditions":[7E0,9E0,-1.6862705E-5,1E0,1E1,2E0,-4.6099257E-2,1.5634995E0,-0E0,-0E0,-1.9437566E-2],"split_indices":[0,3,0,3,3,9,0,0,0,0,0],"split_type":[0,0,0,0,0,0,0,0,0,0,0],"sum_hessian":[7.6459E4,2.89E2,7.617E4,2.79E2,1E1,2.77E2,2E0,1E0,9E0,2.71E2,6E0],"tree_param":{"num_deleted":"0","num_feature":"10","num_nodes":"11","size_leaf_vector":"1"}},{"base_weights":[7.189331E-4,3.2923472E-1,-1.635134E-5,-0E0,8.7722435E0,-1.21714265E-5,2.7913835E-3,-6.0751295E-1,1.540047E0,1.8593897E-4,-0E0,-3.0347614E-2,-0E0],"categories":[],"categories_nodes":[],"categories_segments":[],"categories_sizes":[],"default_left":[0,0,0,0,0,0,0,0,0,0,0,0,0],"id":38,"left_children":[1,3,-1,5,7,-1,9,11,-1,-1,-1,-1,-1],"loss_changes":[3.1743011E1,8.147149E2,0E0,2.5268242E-4,4.4277607E3,0E0,3.6584254E-4,2.449131E0,0E0,0E0,0E0,0E0,0E0],"parents":[2147483647,0,0,1,1,3,3,4,4,6,6,7,7],"right_children":[2,4,-1,6,8,-1,10,12,-1,-1,-1,-1,-1],"split_conditions":[7E0,2E0,-1.635134E-5,5.882353E-2,2.3774E2,-1.21714265E-5,2.6E0,2E0,1.540047E0,1.8593897E-4,-0E0,-3.0347614E-2,-0E0],"split_indices":[0,9,0,6,2,0,7,1,0,0,0,0,0],"split_type":[0,0,0,0,0,0,0,0,0,0,0,0,0],"sum_hessian":[7.6365E4,2.92E2,7.6073E4,2.82E2,1E1,2.56E2,2.6E1,9E0,1E0,1.4E1,1.2E1,5E0,4E0],"tree_param":{"num_deleted":"0","num_feature":"10","num_nodes":"13","size_leaf_vector":"1"}},{"base_weights":[6.7965366E-4,3.1875905E-1,-1.5865457E-5,-3.1784847E-2,1.0112112E1,-1.5403073E-2,-4.517703E-2,1.5169463E0,-0E0,-0E0,-1.8157376E-2],"categories":[],"categories_nodes":[],"categories_segments":[],"categories_sizes":[],"default_left":[0,0,0,0,0,0,0,0,0,0,0],"id":39,"left_children":[1,3,-1,5,7,9,-1,-1,-1,-1,-1],"loss_changes":[2.9350536E1,9.9346655E2,0E0,6.5862927E0,4.0910652E3,2.4983013E0,0E0,0E0,0E0,0E0,0E0],"parents":[2147483647,0,0,1,1,3,3,4,4,5,5],"right_children":[2,4,-1,6,8,10,-1,-1,-1,-1,-1],"split_conditions":[7E0,9E0,-1.5865457E-5,2E0,1E1,2E0,-4.517703E-2,1.5169463E0,-0E0,-0E0,-1.8157376E-2],"split_indices":[0,3,0,1,3,9,0,0,0,0,0],"split_type":[0,0,0,0,0,0,0,0,0,0,0],"sum_hessian":[7.627E4,2.88E2,7.5982E4,2.79E2,9E0,2.77E2,2E0,1E0,8E0,2.71E2,6E0],"tree_param":{"num_deleted":"0","num_feature":"10","num_nodes":"11","size_leaf_vector":"1"}},{"base_weights":[7.142185E-4,3.4092167E-1,-1.538958E-5,-5.0127385E-3,1.0576873E1,-0E0,-1.191624E-1,-5.401187E-1,1.4941921E0,1.1657211E-4,-1.113057E-5,-1.9896893E-2,-0E0,-5.0452542E-3,-4.5655854E-2],"categories":[],"categories_nodes":[],"categories_segments":[],"categories_sizes":[],"default_left":[0,0,0,0,0,0,0,0,0,0,0,0,0,0,0],"id":40,"left_children":[1,3,-1,5,7,9,11,13,-1,-1,-1,-1,-1,-1,-1],"loss_changes":[3.194364E1,9.748763E2,0E0,1.494874E-1,3.9568574E3,2.748958E-4,7.23551E-1,2.4962811E0,0E0,0E0,0E0,0E0,0E0,0E0,0E0],"parents":[2147483647,0,0,1,1,3,3,4,4,5,5,6,6,7,7],"right_children":[2,4,-1,6,8,10,12,14,-1,-1,-1,-1,-1,-1,-1],"split_conditions":[7E0,2E0,-1.538958E-5,2E0,2.3774E2,1.3333334E0,6E0,2.2204E2,1.4941921E0,1.1657211E-4,-1.113057E-5,-1.9896893E-2,-0E0,-5.0452542E-3,-4.5655854E-2],"split_indices":[0,9,0,1,2,5,3,2,0,0,0,0,0,0,0],"split_type":[0,0,0,0,0,0,0,0,0,0,0,0,0,0,0],"sum_hessian":[7.6428E4,2.74E2,7.6154E4,2.66E2,8E0,2.56E2,1E1,7E0,1E0,1.5E1,2.41E2,1E0,9E0,6E0,1E0],"tree_param":{"num_deleted":"0","num_feature":"10","num_nodes":"15","size_leaf_vector":"1"}},{"base_weights":[6.511283E-4,-6.3092925E-4,6.570516E-2,-5.898899E-4,-1.4970832E-1,4.6715684E0,-1.2884184E-5,-5.712182E-4,-2.3408525E-2,-0E0,-7.504842E-1,-0E0,1.4717792E0,-1.5004389E-5,-1.06388026E-4,-3.0279101E-3,-0E0,-4.5013346E-2,-0E0],"categories":[],"categories_nodes":[],"categories_segments":[],"categories_sizes":[],"default_left":[0,0,0,0,0,0,0,0,0,0,0,0,0,0,0,0,0,0,0],"id":41,"left_children":[1,3,5,7,9,11,-1,13,15,-1,17,-1,-1,-1,-1,-1,-1,-1,-1],"loss_changes":[6.395469E0,4.4448128E-1,4.518968E2,2.9587174E-2,1.8046547E0,4.3553364E3,0E0,1.5461713E-2,1.01196475E-1,0E0,2.249763E0,0E0,0E0,0E0,0E0,0E0,0E0,0E0,0E0],"parents":[2147483647,0,0,1,1,2,2,3,3,4,4,5,5,7,7,8,8,10,10],"right_children":[2,4,6,8,10,12,-1,14,16,-1,18,-1,-1,-1,-1,-1,-1,-1,-1],"split_conditions":[4.5E0,4E0,1E1,2.5E0,4.483E2,6E-1,-1.2884184E-5,2E0,3.846154E-2,-0E0,4.6939E2,-0E0,1.4717792E0,-1.5004389E-5,-1.06388026E-4,-3.0279101E-3,-0E0,-4.5013346E-2,-0E0],"split_indices":[4,4,3,4,2,6,0,9,8,0,2,0,0,0,0,0,0,0,0],"split_type":[0,0,0,0,0,0,0,0,0,0,0,0,0,0,0,0,0,0,0],"sum_hessian":[7.6602E4,7.5121E4,1.481E3,7.5102E4,1.9E1,2E1,1.461E3,7.5046E4,5.6E1,1.6E1,3E0,1.9E1,1E0,7.3329E4,1.717E3,1.2E1,4.4E1,1E0,2E0],"tree_param":{"num_deleted":"0","num_feature":"10","num_nodes":"19","size_leaf_vector":"1"}},{"base_weights":[6.916615E-4,3.099479E-1,-4.7993622E-4,-2.5285704E-2,6.903843E0,-1.4586784E-5,-1.9949058E-4,-4.987468E-3,-6.921532E-1,1.4497025E0,-0E0,-1.0702436E-5,5.0964515E-4,-0E0,-1.955302E-2,-2.4209687E-2,1.7552532E-4,1.9689025E-5,-0E0],"categories":[],"categories_nodes":[],"categories_segments":[],"categories_sizes":[],"default_left":[0,0,0,0,0,0,0,0,0,0,0,0,0,0,0,0,0,0,0],"id":42,"left_children":[1,3,5,7,9,-1,11,13,15,-1,-1,-1,17,-1,-1,-1,-1,-1,-1],"loss_changes":[2.7744528E1,6.3969556E2,6.5745786E-5,3.6628342E0,4.0030225E3,0E0,2.10379E-4,8.429101E-1,7.2608614E-1,0E0,0E0,0E0,2.2845808E-5,0E0,0E0,0E0,0E0,0E0,0E0],"parents":[2147483647,0,0,1,1,2,2,3,3,4,4,6,6,7,7,8,8,12,12],"right_children":[2,4,6,8,10,-1,12,14,16,-1,-1,-1,18,-1,-1,-1,-1,-1,-1],"split_conditions":[7E0,6E0,2E0,2E0,1E1,-1.4586784E-5,7.5E-1,2E0,1.0869565E0,1.4497025E0,-0E0,-1.0702436E-5,2.25E0,-0E0,-1.955302E-2,-2.4209687E-2,1.7552532E-4,1.9689025E-5,-0E0],"split_indices":[0,3,9,9,3,0,6,1,7,0,0,0,7,0,0,0,0,0,0],"split_type":[0,0,0,0,0,0,0,0,0,0,0,0,0,0,0,0,0,0,0],"sum_hessian":[7.6487E4,2.88E2,7.6199E4,2.75E2,1.3E1,7.4178E4,2.021E3,2.68E2,7E0,1E0,1.2E1,1.77E3,2.51E2,2.67E2,1E0,6E0,1E0,2.04E2,4.7E1],"tree_param":{"num_deleted":"0","num_feature":"10","num_nodes":"19","size_leaf_vector":"1"}},{"base_weights":[7.067066E-4,3.0186582E-1,-4.660611E-4,-1.9147832E-2,7.9358687E0,-1.415461E-5,-2.0658305E-4,-4.7299564E-3,-6.74527E-1,1.427957E0,-0E0,5.330938E-4,-3.39755E-4,-0E0,-1.9259725E-2,-2.4952129E-2,1.728924E-4,2.052289E-5,-0E0,-1.0633798E-5,-0E0],"categories":[],"categories_nodes":[],"categories_segments":[],"categories_sizes":[],"default_left":[0,0,0,0,0,0,0,0,0,0,0,0,0,0,0,0,0,0,0,0,0],"id":43,"left_children":[1,3,5,7,9,-1,11,13,15,-1,-1,17,19,-1,-1,-1,-1,-1,-1,-1,-1],"loss_changes":[2.7041872E1,7.2877747E2,4.5910478E-5,2.631348E0,3.775511E3,0E0,1.8110636E-4,8.1801784E-1,7.290838E-1,0E0,0E0,2.1516938E-5,1.0345015E-5,0E0,0E0,0E0,0E0,0E0,0E0,0E0,0E0],"parents":[2147483647,0,0,1,1,2,2,3,3,4,4,6,6,7,7,8,8,11,11,12,12],"right_children":[2,4,6,8,10,-1,12,14,16,-1,-1,18,20,-1,-1,-1,-1,-1,-1,-1,-1],"split_conditions":[7E0,6E0,2E0,2E0,1E1,-1.415461E-5,1.3333334E0,2E0,1.0869565E0,1.427957E0,-0E0,2.6E0,7.5E-1,-0E0,-1.9259725E-2,-2.4952129E-2,1.728924E-4,2.052289E-5,-0E0,-1.0633798E-5,-0E0],"split_indices":[0,3,9,9,3,0,5,1,7,0,0,7,6,0,0,0,0,0,0,0,0],"split_type":[0,0,0,0,0,0,0,0,0,0,0,0,0,0,0,0,0,0,0,0,0],"sum_hessian":[7.6478E4,2.96E2,7.6182E4,2.85E2,1.1E1,7.415E4,2.032E3,2.8E2,5E0,1E0,1E1,1.95E2,1.837E3,2.79E2,1E0,4E0,1E0,1.64E2,3.1E1,1.77E3,6.7E1],"tree_param":{"num_deleted":"0","num_feature":"10","num_nodes":"21","size_leaf_vector":"1"}},{"base_weights":[-5.771016E-4,-3.3349525E-2,-1.356388E-5,-8.326328E-3,-5.9777063E-1,-1.0795116E-1,7.61902E-4,-2.3994193E0,-0E0,-9.597126E-3,-0E0,2.578391E-4,-8.397028E-6,-1.8970829E-2,-8.750304E-2],"categories":[],"categories_nodes":[],"categories_segments":[],"categories_sizes":[],"default_left":[0,0,0,0,0,0,0,0,0,0,0,0,0,0,0],"id":44,"left_children":[1,3,-1,5,7,9,11,13,-1,-1,-1,-1,-1,-1,-1],"loss_changes":[3.093194E-1,3.9878924E0,0E0,2.6069525E-1,1.2983683E1,5.3902674E-1,2.8984013E-3,5.431938E-1,0E0,0E0,0E0,0E0,0E0,0E0,0E0],"parents":[2147483647,0,0,1,1,3,3,4,4,5,5,6,6,7,7],"right_children":[2,4,-1,6,8,10,12,14,-1,-1,-1,-1,-1,-1,-1],"split_conditions":[7E0,2E0,-1.356388E-5,1.3333334E0,9E0,6E-1,6E-1,3.1721E2,-0E0,-9.597126E-3,-0E0,2.578391E-4,-8.397028E-6,-1.8970829E-2,-8.750304E-2],"split_indices":[0,1,0,5,3,8,8,2,0,0,0,0,0,0,0],"split_type":[0,0,0,0,0,0,0,0,0,0,0,0,0,0,0],"sum_hessian":[7.6352E4,2.86E2,7.6066E4,2.75E2,1.1E1,2.3E1,2.52E2,2E0,9E0,7E0,1.6E1,4E1,2.12E2,1E0,1E0],"tree_param":{"num_deleted":"0","num_feature":"10","num_nodes":"15","size_leaf_vector":"1"}},{"base_weights":[7.0201996E-4,3.209429E-1,-1.3153949E-5,-2.5951268E-2,7.2151465E0,-1.3930714E-1,-1.0414527E-5,1.4065377E0,-0E0,-6.79312E-4,-2.7481992E-2],"categories":[],"categories_nodes":[],"categories_segments":[],"categories_sizes":[],"default_left":[0,0,0,0,0,0,0,0,0,0,0],"id":45,"left_children":[1,3,-1,5,7,9,-1,-1,-1,-1,-1],"loss_changes":[2.7891197E1,6.490187E2,0E0,7.377019E-1,3.7195713E3,4.1444964E0,0E0,0E0,0E0,0E0,0E0],"parents":[2147483647,0,0,1,1,3,3,4,4,5,5],"right_children":[2,4,-1,6,8,10,-1,-1,-1,-1,-1],"split_conditions":[7E0,6E0,-1.3153949E-5,6E-1,1E1,3.3333334E-1,-1.0414527E-5,1.4065377E0,-0E0,-6.79312E-4,-2.7481992E-2],"split_indices":[0,3,0,8,3,8,0,0,0,0,0],"split_type":[0,0,0,0,0,0,0,0,0,0,0],"sum_hessian":[7.6277E4,2.7E2,7.6007E4,2.58E2,1.2E1,4.6E1,2.12E2,1E0,1.1E1,4.1E1,5E0],"tree_param":{"num_deleted":"0","num_feature":"10","num_nodes":"11","size_leaf_vector":"1"}},{"base_weights":[6.431903E-4,2.8115183E-1,-4.2499293E-4,-2.9991765E-2,8.184703E0,-1.292319E-5,-1.6680613E-4,-0E0,-7.7099085E-1,1.3854396E0,-2.2309117E-1,5.658321E-4,-2.955269E-4,2.1415175E-4,-8.004122E-6,-8.497642E-2,-0E0,-1.1227687E-2,-0E0,2.1170328E-5,-0E0,-9.273189E-6,-0E0],"categories":[],"categories_nodes":[],"categories_segments":[],"categories_sizes":[],"default_left":[0,0,0,0,0,0,0,0,0,0,0,0,0,0,0,0,0,0,0,0,0,0,0],"id":46,"left_children":[1,3,5,7,9,-1,11,13,15,-1,17,19,21,-1,-1,-1,-1,-1,-1,-1,-1,-1,-1],"loss_changes":[2.2905598E1,7.142113E2,5.3680502E-5,6.2868342E0,3.5290435E3,0E0,1.6608628E-4,1.0878855E-3,1.753128E1,0E0,3.4270954E-1,1.7849445E-5,8.367657E-6,0E0,0E0,0E0,0E0,0E0,0E0,0E0,0E0,0E0,0E0],"parents":[2147483647,0,0,1,1,2,2,3,3,4,4,6,6,7,7,8,8,10,10,11,11,12,12],"right_children":[2,4,6,8,10,-1,12,14,16,-1,18,20,22,-1,-1,-1,-1,-1,-1,-1,-1,-1,-1],"split_conditions":[7E0,2E0,2E0,2E0,1.3333334E0,-1.292319E-5,1.3333334E0,1.3333334E0,4.5E0,1.3854396E0,2E0,2.6E0,7.5E-1,2.1415175E-4,-8.004122E-6,-8.497642E-2,-0E0,-1.1227687E-2,-0E0,2.1170328E-5,-0E0,-9.273189E-6,-0E0],"split_indices":[0,9,9,1,5,0,5,5,4,0,1,7,6,0,0,0,0,0,0,0,0,0,0],"split_type":[0,0,0,0,0,0,0,0,0,0,0,0,0,0,0,0,0,0,0,0,0,0,0],"sum_hessian":[7.635E4,2.89E2,7.6061E4,2.79E2,1E1,7.4016E4,2.045E3,2.69E2,1E1,1E0,9E0,1.89E2,1.856E3,2E1,2.49E2,2E0,8E0,5E0,4E0,1.57E2,3.2E1,1.784E3,7.2E1],"tree_param":{"num_deleted":"0","num_feature":"10","num_nodes":"23","size_leaf_vector":"1"}},{"base_weights":[6.0093607E-4,2.7400795E-1,-4.129292E-4,-4.8947163E-2,8.273348E0,-1.2538453E-5,-1.7873387E-4,-2.2775663E-2,-1.0601392E-1,1.364658E0,-0E0,-9.2148275E-6,3.2617783E-4,-1.2720736E-4,-2.4814174E-2,4.912326E-5,-0E0],"categories":[],"categories_nodes":[],"categories_segments":[],"categories_sizes":[],"default_left":[0,0,0,0,0,0,0,0,0,0,0,0,0,0,0,0,0],"id":47,"left_children":[1,3,5,7,9,-1,11,13,-1,-1,-1,-1,15,-1,-1,-1,-1],"loss_changes":[2.123311E1,7.323374E2,2.984982E-5,2.4462479E1,3.3854946E3,0E0,1.291192E-4,3.9686613E0,0E0,0E0,0E0,0E0,1.957302E-4,0E0,0E0,0E0,0E0],"parents":[2147483647,0,0,1,1,2,2,3,3,4,4,6,6,7,7,12,12],"right_children":[2,4,6,8,10,-1,12,14,-1,-1,-1,-1,16,-1,-1,-1,-1],"split_conditions":[7E0,9E0,2E0,6E0,1E1,-1.2538453E-5,7.5E-1,2E0,-1.0601392E-1,1.364658E0,-0E0,-9.2148275E-6,9.502E1,-1.2720736E-4,-2.4814174E-2,4.912326E-5,-0E0],"split_indices":[0,3,9,3,3,0,6,9,0,0,0,0,2,0,0,0,0],"split_type":[0,0,0,0,0,0,0,0,0,0,0,0,0,0,0,0,0],"sum_hessian":[7.6499E4,2.82E2,7.6217E4,2.72E2,1E1,7.4199E4,2.018E3,2.71E2,1E0,1E0,9E0,1.767E3,2.51E2,2.66E2,5E0,8.2E1,1.69E2],"tree_param":{"num_deleted":"0","num_feature":"10","num_nodes":"17","size_leaf_vector":"1"}},{"base_weights":[5.6337105E-4,2.586676E-1,-1.200739E-5,-5.934436E-2,6.4031367E0,-3.341015E-2,-1.0442371E-1,1.3441882E0,-0E0,-4.8391894E-3,-6.7907513E-6],"categories":[],"categories_nodes":[],"categories_segments":[],"categories_sizes":[],"default_left":[0,0,0,0,0,0,0,0,0,0,0],"id":48,"left_children":[1,3,-1,5,7,9,-1,-1,-1,-1,-1],"loss_changes":[1.8990103E1,5.559545E2,0E0,2.357879E1,3.4412021E3,1.1297119E0,0E0,0E0,0E0,0E0,0E0],"parents":[2147483647,0,0,1,1,3,3,4,4,5,5],"right_children":[2,4,-1,6,8,10,-1,-1,-1,-1,-1],"split_conditions":[7E0,9E0,-1.200739E-5,6E0,1E1,6E-1,-1.0442371E-1,1.3441882E0,-0E0,-4.8391894E-3,-6.7907513E-6],"split_indices":[0,3,0,3,3,8,0,0,0,0,0],"split_type":[0,0,0,0,0,0,0,0,0,0,0],"sum_hessian":[7.6248E4,2.83E2,7.5965E4,2.7E2,1.3E1,2.69E2,1E0,1E0,1.2E1,5.4E1,2.15E2],"tree_param":{"num_deleted":"0","num_feature":"10","num_nodes":"11","size_leaf_vector":"1"}},{"base_weights":[5.974458E-4,-5.610351E-4,6.0692385E-2,-4.683433E-4,-4.0279514E-1,4.9031444E0,-3.1940104E-4,-4.520177E-4,-1.8255463E-2,-0E0,-1.7145046E0,1.3240254E0,-0E0,-0E0,-3.3109655E-4,-1.16498895E-5,-9.4133844E-5,-2.8223742E-3,-0E0,-1.0285736E-1,-0E0,-9.996542E-6,-0E0],"categories":[],"categories_nodes":[],"categories_segments":[],"categories_sizes":[],"default_left":[0,0,0,0,0,0,0,0,0,0,0,0,0,0,0,0,0,0,0,0,0,0,0],"id":49,"left_children":[1,3,5,7,9,11,13,15,17,-1,19,-1,-1,-1,21,-1,-1,-1,-1,-1,-1,-1,-1],"loss_changes":[5.319079E0,2.7509992E0,4.2741226E2,1.9858086E-2,8.999958E0,3.462917E3,3.1903473E-6,1.2439818E-2,8.521512E-2,0E0,1.1752197E1,0E0,0E0,0E0,1.0256335E-6,0E0,0E0,0E0,0E0,0E0,0E0,0E0,0E0],"parents":[2147483647,0,0,1,1,2,2,3,3,4,4,5,5,6,6,7,7,8,8,10,10,14,14],"right_children":[2,4,6,8,10,12,14,16,18,-1,20,-1,-1,-1,22,-1,-1,-1,-1,-1,-1,-1,-1],"split_conditions":[4.5E0,4E0,1E1,2.5E0,4.483E2,1.3333334E0,2.3333333E0,2E0,3.846154E-2,-0E0,4.6939E2,1.3240254E0,-0E0,-0E0,5.21E2,-1.16498895E-5,-9.4133844E-5,-2.8223742E-3,-0E0,-1.0285736E-1,-0E0,-9.996542E-6,-0E0],"split_indices":[4,4,3,4,2,5,5,9,8,0,2,0,0,0,3,0,0,0,0,0,0,0,0],"split_type":[0,0,0,0,0,0,0,0,0,0,0,0,0,0,0,0,0,0,0,0,0,0,0],"sum_hessian":[7.6315E4,7.4871E4,1.444E3,7.4855E4,1.6E1,1.7E1,1.427E3,7.4793E4,6.2E1,1.3E1,3E0,1E0,1.6E1,7E1,1.357E3,7.3098E4,1.695E3,1.1E1,5.1E1,1E0,2E0,1.349E3,8E0],"tree_param":{"num_deleted":"0","num_feature":"10","num_nodes":"23","size_leaf_vector":"1"}},{"base_weights":[-5.416051E-4,-4.4372566E-2,-1.1218298E-5,-1.7000753E-2,-6.143916E-1,-9.074759E-2,-7.246103E-6,-2.6688688E0,-0E0,3.4924908E-4,-3.1037366E-2,-1.72846E-2,-1.0131449E-1],"categories":[],"categories_nodes":[],"categories_segments":[],"categories_sizes":[],"default_left":[0,0,0,0,0,0,0,0,0,0,0,0,0],"id":50,"left_children":[1,3,-1,5,7,9,-1,11,-1,-1,-1,-1,-1],"loss_changes":[5.5531675E-1,4.419922E0,0E0,3.3199838E-1,1.646138E1,4.9462457E0,0E0,2.105606E0,0E0,0E0,0E0,0E0,0E0],"parents":[2147483647,0,0,1,1,3,3,4,4,5,5,7,7],"right_children":[2,4,-1,6,8,10,-1,12,-1,-1,-1,-1,-1],"split_conditions":[7E0,2E0,-1.1218298E-5,6E-1,4.5E0,3.3333334E-1,-7.246103E-6,3.1721E2,-0E0,3.4924908E-4,-3.1037366E-2,-1.72846E-2,-1.0131449E-1],"split_indices":[0,1,0,8,4,8,0,2,0,0,0,0,0],"split_type":[0,0,0,0,0,0,0,0,0,0,0,0,0],"sum_hessian":[7.6176E4,2.87E2,7.5889E4,2.75E2,1.2E1,4.9E1,2.26E2,2E0,1E1,4.5E1,4E0,1E0,1E0],"tree_param":{"num_deleted":"0","num_feature":"10","num_nodes":"13","size_leaf_vector":"1"}},{"base_weights":[-5.647307E-4,-5.3101186E-2,-3.6345332E-4,-2.7095074E-2,-8.480586E-1,-1.1105559E-5,-6.333627E-5,5.868237E-4,-6.560132E-1,1.0596671E-1,-1.359399E0,-5.578366E-6,4.113529E-4,2.0933579E-4,-6.420719E-6,-7.8880064E-2,-0E0,4.202004E-3,-0E0,7.860098E-4,-4.9852766E-2,4.808335E-5,-0E0],"categories":[],"categories_nodes":[],"categories_segments":[],"categories_sizes":[],"default_left":[0,0,0,0,0,0,0,0,0,0,0,0,0,0,0,0,0,0,0,0,0,0,0],"id":51,"left_children":[1,3,5,7,9,-1,11,13,15,17,19,-1,21,-1,-1,-1,-1,-1,-1,-1,-1,-1,-1],"loss_changes":[8.006259E-1,5.86422E0,1.10037625E-4,4.9580383E0,4.6598806E0,0E0,9.3530936E-5,2.0598036E-3,1.5575979E1,1.394036E-2,2.7207937E0,0E0,1.7226949E-4,0E0,0E0,0E0,0E0,0E0,0E0,0E0,0E0,0E0,0E0],"parents":[2147483647,0,0,1,1,2,2,3,3,4,4,6,6,7,7,8,8,9,9,10,10,12,12],"right_children":[2,4,6,8,10,-1,12,14,16,18,20,-1,22,-1,-1,-1,-1,-1,-1,-1,-1,-1,-1],"split_conditions":[7E0,2E0,2E0,2E0,6.452E1,-1.1105559E-5,7.5E-1,3.846154E-2,9E0,2E0,3.3333334E-1,-5.578366E-6,9.502E1,2.0933579E-4,-6.420719E-6,-7.8880064E-2,-0E0,4.202004E-3,-0E0,7.860098E-4,-4.9852766E-2,4.808335E-5,-0E0],"split_indices":[0,9,9,1,2,0,6,8,3,1,8,0,2,0,0,0,0,0,0,0,0,0,0],"split_type":[0,0,0,0,0,0,0,0,0,0,0,0,0,0,0,0,0,0,0,0,0,0,0],"sum_hessian":[7.622E4,2.88E2,7.5932E4,2.8E2,8E0,7.394E4,1.992E3,2.69E2,1.1E1,3E0,5E0,1.751E3,2.41E2,4.3E1,2.26E2,2E0,9E0,2E0,1E0,1E0,4E0,8.2E1,1.59E2],"tree_param":{"num_deleted":"0","num_feature":"10","num_nodes":"23","size_leaf_vector":"1"}},{"base_weights":[6.276523E-4,2.678474E-1,-3.5213053E-4,-2.7358579E-2,7.4985533E0,-1.0772721E-5,-4.878074E-5,8.7869423E-4,-6.428665E-1,-4.4100997E-1,1.3049128E0,-5.404416E-6,4.76243E-4,2.337782E-4,-5.446581E-6,-7.730247E-2,-0E0,-5.0346325E-3,-4.1995645E-2,5.0638933E-5,-0E0],"categories":[],"categories_nodes":[],"categories_segments":[],"categories_sizes":[],"default_left":[0,0,0,0,0,0,0,0,0,0,0,0,0,0,0,0,0,0,0,0,0],"id":52,"left_children":[1,3,5,7,9,-1,11,13,15,17,-1,-1,19,-1,-1,-1,-1,-1,-1,-1,-1],"loss_changes":[2.0067125E1,5.9862555E2,1.2021698E-4,4.7574353E0,3.1674277E3,0E0,1.10762216E-4,2.6611078E-3,1.4959579E1,2.2277648E0,0E0,0E0,2.0429277E-4,0E0,0E0,0E0,0E0,0E0,0E0,0E0,0E0],"parents":[2147483647,0,0,1,1,2,2,3,3,4,4,6,6,7,7,8,8,9,9,12,12],"right_children":[2,4,6,8,10,-1,12,14,16,18,-1,-1,20,-1,-1,-1,-1,-1,-1,-1,-1],"split_conditions":[7E0,2E0,2E0,2E0,2.3774E2,-1.0772721E-5,7.5E-1,3.846154E-2,9E0,2.2204E2,1.3049128E0,-5.404416E-6,9.502E1,2.337782E-4,-5.446581E-6,-7.730247E-2,-0E0,-5.0346325E-3,-4.1995645E-2,5.0638933E-5,-0E0],"split_indices":[0,9,9,1,2,0,6,8,3,2,0,0,2,0,0,0,0,0,0,0,0],"split_type":[0,0,0,0,0,0,0,0,0,0,0,0,0,0,0,0,0,0,0,0,0],"sum_hessian":[7.6542E4,2.79E2,7.6263E4,2.69E2,1E1,7.423E4,2.033E3,2.58E2,1.1E1,9E0,1E0,1.779E3,2.54E2,4.6E1,2.12E2,2E0,9E0,8E0,1E0,9.1E1,1.63E2],"tree_param":{"num_deleted":"0","num_feature":"10","num_nodes":"21","size_leaf_vector":"1"}},{"base_weights":[7.121528E-4,-4.0983345E-4,5.781965E-2,-3.964487E-4,-1.19682625E-2,3.8943276E0,-2.4022434E-4,-9.384294E-4,-3.2798844E-4,-6.606434E-2,-0E0,1.285339E0,-0E0,-2.4487986E-4,-0E0,-8.1969876E-5,-1.0153797E-5,8.763416E-6,-9.958993E-6,-9.733659E-3,-0E0,-0E0,-7.629908E-6],"categories":[],"categories_nodes":[],"categories_segments":[],"categories_sizes":[],"default_left":[0,0,0,0,0,0,0,0,0,0,0,0,0,0,0,0,0,0,0,0,0,0,0],"id":53,"left_children":[1,3,5,7,9,11,13,15,17,19,-1,-1,-1,21,-1,-1,-1,-1,-1,-1,-1,-1,-1],"loss_changes":[4.901582E0,1.0351865E-2,3.287197E2,2.6506297E-3,4.993029E-2,3.3376782E3,2.861707E-6,8.5509E-3,1.6843993E-4,2.547108E-1,0E0,0E0,0E0,2.48805E-6,0E0,0E0,0E0,0E0,0E0,0E0,0E0,0E0,0E0],"parents":[2147483647,0,0,1,1,2,2,3,3,4,4,5,5,6,6,7,7,8,8,9,9,13,13],"right_children":[2,4,6,8,10,12,14,16,18,20,-1,-1,-1,22,-1,-1,-1,-1,-1,-1,-1,-1,-1],"split_conditions":[4.5E0,2.5E0,1E1,1.3333334E0,3.846154E-2,1.3333334E0,2.57E2,6E-1,2.003E1,6E0,-0E0,1.285339E0,-0E0,2.3333333E0,-0E0,-8.1969876E-5,-1.0153797E-5,8.763416E-6,-9.958993E-6,-9.733659E-3,-0E0,-0E0,-7.629908E-6],"split_indices":[4,4,3,5,8,5,4,8,2,3,0,0,0,5,0,0,0,0,0,0,0,0,0],"split_type":[0,0,0,0,0,0,0,0,0,0,0,0,0,0,0,0,0,0,0,0,0,0,0],"sum_hessian":[7.6408E4,7.4935E4,1.473E3,7.4858E4,7.7E1,2.1E1,1.452E3,8.23E3,6.6628E4,1.3E1,6.4E1,1E0,2E1,1.445E3,7E0,2.02E3,6.21E3,2.64E2,6.6364E4,2E0,1.1E1,6.7E1,1.378E3],"tree_param":{"num_deleted":"0","num_feature":"10","num_nodes":"23","size_leaf_vector":"1"}},{"base_weights":[-4.852404E-4,-4.0662646E-2,-9.903472E-6,-1.5446191E-2,-5.31342E-1,-7.6767966E-2,-6.476113E-6,-6.476814E-2,-9.745204E-2,2.2280536E-4,-2.304693E-2,-1.45365875E-2,6.78001E-5],"categories":[],"categories_nodes":[],"categories_segments":[],"categories_sizes":[],"default_left":[0,0,0,0,0,0,0,0,0,0,0,0,0],"id":54,"left_children":[1,3,-1,5,7,9,-1,11,-1,-1,-1,-1,-1],"loss_changes":[4.714711E-1,3.5377133E0,0E0,2.5192323E-1,1.7206215E1,3.2255363E0,0E0,4.1511053E-1,0E0,0E0,0E0,0E0,0E0],"parents":[2147483647,0,0,1,1,3,3,4,4,5,5,7,7],"right_children":[2,4,-1,6,8,10,-1,12,-1,-1,-1,-1,-1],"split_conditions":[7E0,2E0,-9.903472E-6,6E-1,3.868E2,3.846154E-2,-6.476113E-6,6E0,-9.745204E-2,2.2280536E-4,-2.304693E-2,-1.45365875E-2,6.78001E-5],"split_indices":[0,1,0,8,2,8,0,3,0,0,0,0,0],"split_type":[0,0,0,0,0,0,0,0,0,0,0,0,0],"sum_hessian":[7.6306E4,2.9E2,7.6016E4,2.77E2,1.3E1,5.3E1,2.24E2,1.2E1,1E0,4.8E1,5E0,1E0,1.1E1],"tree_param":{"num_deleted":"0","num_feature":"10","num_nodes":"13","size_leaf_vector":"1"}},{"base_weights":[6.6772837E-4,2.683993E-1,-3.199701E-4,-2.6174039E-2,9.185079E0,-9.796856E-6,-2.8073211E-5,3.5452232E-4,-7.339106E-1,-2.4237755E-1,2.8154118E1,7.0183014E-4,-1.5448086E-4,1.5002541E-4,-4.9924774E-6,-7.453919E-2,5.5550638E-5,-3.8482483E-2,3.8442805E-3,1.2660578E0,-0E0,2.589163E-5,-0E0,-4.933097E-6,-0E0],"categories":[],"categories_nodes":[],"categories_segments":[],"categories_sizes":[],"default_left":[0,0,0,0,0,0,0,0,0,0,0,0,0,0,0,0,0,0,0,0,0,0,0,0,0],"id":55,"left_children":[1,3,5,7,9,-1,11,13,15,17,19,21,23,-1,-1,-1,-1,-1,-1,-1,-1,-1,-1,-1,-1],"loss_changes":[2.0216475E1,7.3923535E2,1.1089165E-4,5.1992545E0,1.6190833E3,0E0,1.3138047E-4,1.1232737E-3,1.3134087E1,2.9781878E0,1.1840427E3,1.6616155E-5,3.99071E-6,0E0,0E0,0E0,0E0,0E0,0E0,0E0,0E0,0E0,0E0,0E0,0E0],"parents":[2147483647,0,0,1,1,2,2,3,3,4,4,6,6,7,7,8,8,9,9,10,10,11,11,12,12],"right_children":[2,4,6,8,10,-1,12,14,16,18,20,22,24,-1,-1,-1,-1,-1,-1,-1,-1,-1,-1,-1,-1],"split_conditions":[7E0,2E0,2E0,2E0,1.8E0,-9.796856E-6,1.3333334E0,3.846154E-2,4.5E0,1.3333334E0,5E0,2.25E0,7.5E-1,1.5002541E-4,-4.9924774E-6,-7.453919E-2,5.5550638E-5,-3.8482483E-2,3.8442805E-3,1.2660578E0,-0E0,2.589163E-5,-0E0,-4.933097E-6,-0E0],"split_indices":[0,9,9,1,7,0,5,8,4,5,4,7,6,0,0,0,0,0,0,0,0,0,0,0,0],"split_type":[0,0,0,0,0,0,0,0,0,0,0,0,0,0,0,0,0,0,0,0,0,0,0,0,0],"sum_hessian":[7.6348E4,2.8E2,7.6068E4,2.72E2,8E0,7.4053E4,2.015E3,2.63E2,9E0,6E0,2E0,1.8E2,1.835E3,4.5E1,2.18E2,2E0,7E0,1E0,5E0,1E0,1E0,1.41E2,3.9E1,1.767E3,6.8E1],"tree_param":{"num_deleted":"0","num_feature":"10","num_nodes":"25","size_leaf_vector":"1"}},{"base_weights":[6.2560727E-4,-4.664367E-4,5.582795E-2,-3.808491E-4,-3.1577617E-1,3.7783692E0,-1.5818755E-4,-3.6867792E-4,-1.2290816E-2,-0E0,-1.5813918E0,1.247067E0,-0E0,-0E0,-2.3334322E-4,-9.383349E-6,-8.096769E-5,-2.0384134E-3,-0E0,-9.487217E-2,-0E0,-0E0,3.3008528E-5,-0E0,-8.132754E-6],"categories":[],"categories_nodes":[],"categories_segments":[],"categories_sizes":[],"default_left":[0,0,0,0,0,0,0,0,0,0,0,0,0,0,0,0,0,0,0,0,0,0,0,0,0],"id":56,"left_children":[1,3,5,7,9,11,13,15,17,-1,19,-1,-1,21,23,-1,-1,-1,-1,-1,-1,-1,-1,-1,-1],"loss_changes":[4.6085606E0,1.9888595E0,3.0945148E2,9.58038E-3,8.008908E0,3.1418735E3,3.910012E-5,9.439857E-3,4.5129362E-2,0E0,9.998419E0,0E0,0E0,1.6948756E-5,2.0074294E-5,0E0,0E0,0E0,0E0,0E0,0E0,0E0,0E0,0E0,0E0],"parents":[2147483647,0,0,1,1,2,2,3,3,4,4,5,5,6,6,7,7,8,8,10,10,13,13,14,14],"right_children":[2,4,6,8,10,12,14,16,18,-1,20,-1,-1,22,24,-1,-1,-1,-1,-1,-1,-1,-1,-1,-1],"split_conditions":[4.5E0,4E0,1E1,2.5E0,4.483E2,1.3333334E0,2.3333333E0,2E0,3.846154E-2,-0E0,4.6939E2,1.247067E0,-0E0,1.87E2,8.829E1,-9.383349E-6,-8.096769E-5,-2.0384134E-3,-0E0,-9.487217E-2,-0E0,-0E0,3.3008528E-5,-0E0,-8.132754E-6],"split_indices":[4,4,3,4,2,5,5,9,8,0,2,0,0,3,2,0,0,0,0,0,0,0,0,0,0],"split_type":[0,0,0,0,0,0,0,0,0,0,0,0,0,0,0,0,0,0,0,0,0,0,0,0,0],"sum_hessian":[7.6355E4,7.4873E4,1.482E3,7.4854E4,1.9E1,2.1E1,1.461E3,7.4787E4,6.7E1,1.6E1,3E0,1E0,2E1,7.2E1,1.389E3,7.3078E4,1.709E3,1.1E1,5.6E1,1E0,2E0,5.9E1,1.3E1,8.7E1,1.302E3],"tree_param":{"num_deleted":"0","num_feature":"10","num_nodes":"25","size_leaf_vector":"1"}},{"base_weights":[6.2335766E-4,2.3957692E-1,-2.9897958E-4,-2.3951195E-2,7.030705E0,-3.0713982E-4,-0E0,7.0238E-4,-6.449629E-1,-5.0127524E-1,2.731641E1,-9.217112E-6,-0E0,6.9347565E-4,-7.181933E-5,2.2721515E-4,-0E0,-7.207931E-2,4.446416E-5,-3.790403E-2,-7.0670308E-3,1.2283609E0,-0E0,2.3404029E-5,-0E0,-2.5000018E-6,-0E0],"categories":[],"categories_nodes":[],"categories_segments":[],"categories_sizes":[],"default_left":[0,0,0,0,0,0,0,0,0,0,0,0,0,0,0,0,0,0,0,0,0,0,0,0,0,0,0],"id":57,"left_children":[1,3,5,7,9,11,13,15,17,19,21,-1,-1,23,25,-1,-1,-1,-1,-1,-1,-1,-1,-1,-1,-1,-1],"loss_changes":[1.685188E1,5.270271E2,1.846985E-4,4.412964E0,1.6970813E3,1.8756837E-6,9.944642E-5,1.1268122E-3,1.2742361E1,1.3751469E0,1.114487E3,0E0,0E0,1.1099291E-5,2.8168097E-6,0E0,0E0,0E0,0E0,0E0,0E0,0E0,0E0,0E0,0E0,0E0,0E0],"parents":[2147483647,0,0,1,1,2,2,3,3,4,4,5,5,6,6,7,7,8,8,9,9,10,10,13,13,14,14],"right_children":[2,4,6,8,10,12,14,16,18,20,22,-1,-1,24,26,-1,-1,-1,-1,-1,-1,-1,-1,-1,-1,-1,-1],"split_conditions":[7E0,2E0,2E0,2E0,1.8E0,4E0,1.3333334E0,1.3333334E0,9E0,1.3333334E0,1E1,-9.217112E-6,-0E0,3.6E0,7.5E-1,2.2721515E-4,-0E0,-7.207931E-2,4.446416E-5,-3.790403E-2,-7.0670308E-3,1.2283609E0,-0E0,2.3404029E-5,-0E0,-2.5000018E-6,-0E0],"split_indices":[0,9,9,1,7,1,5,5,3,5,3,0,0,7,6,0,0,0,0,0,0,0,0,0,0,0,0],"split_type":[0,0,0,0,0,0,0,0,0,0,0,0,0,0,0,0,0,0,0,0,0,0,0,0,0,0,0],"sum_hessian":[7.6352E4,2.93E2,7.6059E4,2.83E2,1E1,7.4029E4,2.03E3,2.73E2,1E1,8E0,2E0,7.4002E4,2.7E1,1.86E2,1.844E3,2.1E1,2.52E2,2E0,8E0,1E0,7E0,1E0,1E0,1.65E2,2.1E1,1.775E3,6.9E1],"tree_param":{"num_deleted":"0","num_feature":"10","num_nodes":"27","size_leaf_vector":"1"}},{"base_weights":[5.810201E-4,2.4228027E-1,-2.9014383E-4,-2.5365204E-2,6.677169E0,-2.978906E-4,-0E0,5.1223056E-4,-5.7932377E-1,-7.113511E-1,1.2099355E0,-8.939496E-6,-0E0,6.441945E-4,-7.238555E-5,1.874562E-4,-5.4595293E-6,-7.0637725E-2,3.5661455E-5,-5.0539304E-2,-7.348427E-3,5.9597285E-5,-0E0,-0E0,-2.4210387E-6],"categories":[],"categories_nodes":[],"categories_segments":[],"categories_sizes":[],"default_left":[0,0,0,0,0,0,0,0,0,0,0,0,0,0,0,0,0,0,0,0,0,0,0,0,0],"id":58,"left_children":[1,3,5,7,9,11,13,15,17,19,-1,-1,-1,21,23,-1,-1,-1,-1,-1,-1,-1,-1,-1,-1],"loss_changes":[1.612303E1,4.7445847E2,1.6832165E-4,3.8569598E0,2.7678386E3,1.4286488E-6,8.841509E-5,1.6192797E-3,1.2604915E1,3.9338622E0,0E0,0E0,0E0,1.737276E-4,1.8686642E-6,0E0,0E0,0E0,0E0,0E0,0E0,0E0,0E0,0E0,0E0],"parents":[2147483647,0,0,1,1,2,2,3,3,4,4,5,5,6,6,7,7,8,8,9,9,13,13,14,14],"right_children":[2,4,6,8,10,12,14,16,18,20,-1,-1,-1,22,24,-1,-1,-1,-1,-1,-1,-1,-1,-1,-1],"split_conditions":[7E0,2E0,2E0,2E0,2.3774E2,4E0,1.3333334E0,3.846154E-2,4.5E0,1.3333334E0,1.2099355E0,-8.939496E-6,-0E0,9.166E1,2.3333333E0,1.874562E-4,-5.4595293E-6,-7.0637725E-2,3.5661455E-5,-5.0539304E-2,-7.348427E-3,5.9597285E-5,-0E0,-0E0,-2.4210387E-6],"split_indices":[0,9,9,1,2,1,5,8,4,5,0,0,0,2,5,0,0,0,0,0,0,0,0,0,0],"split_type":[0,0,0,0,0,0,0,0,0,0,0,0,0,0,0,0,0,0,0,0,0,0,0,0,0],"sum_hessian":[7.6456E4,2.74E2,7.6182E4,2.64E2,1E1,7.4168E4,2.014E3,2.53E2,1.1E1,9E0,1E0,7.4138E4,3E1,1.89E2,1.825E3,4.2E1,2.11E2,2E0,9E0,2E0,7E0,6.3E1,1.26E2,7E1,1.755E3],"tree_param":{"num_deleted":"0","num_feature":"10","num_nodes":"25","size_leaf_vector":"1"}},{"base_weights":[6.9621584E-4,-3.440922E-4,5.2829836E-2,-2.9671306E-4,-2.294801E-3,3.453844E0,-6.336781E-5,-8.591435E-6,-1.0560033E-2,-1.1473773E-2,-1.1101337E-3,1.1917864E0,-0E0,-0E0,-1.3351493E-4,-1.4441145E-3,-0E0,-1.5624801E-3,1.8052293E-5,-5.411533E-5,3.5249495E-6,-0E0,3.23998E-5,-6.954187E-6,-0E0],"categories":[],"categories_nodes":[],"categories_segments":[],"categories_sizes":[],"default_left":[0,0,0,0,0,0,0,0,0,0,0,0,0,0,0,0,0,0,0,0,0,0,0,0,0],"id":59,"left_children":[1,3,5,7,9,11,13,-1,15,17,19,-1,-1,21,23,-1,-1,-1,-1,-1,-1,-1,-1,-1,-1],"loss_changes":[4.1582594E0,6.678818E-3,2.701814E2,6.689879E-3,1.754094E-2,2.8819763E3,1.9164463E-5,0E0,2.7620867E-2,9.736964E-2,1.4828986E-3,0E0,0E0,1.6329397E-5,3.5727706E-5,0E0,0E0,0E0,0E0,0E0,0E0,0E0,0E0,0E0,0E0],"parents":[2147483647,0,0,1,1,2,2,3,3,4,4,5,5,6,6,8,8,9,9,10,10,13,13,14,14],"right_children":[2,4,6,8,10,12,14,-1,16,18,20,-1,-1,22,24,-1,-1,-1,-1,-1,-1,-1,-1,-1,-1],"split_conditions":[4.5E0,2E0,1E1,2.5E0,1.3333334E0,1.3333334E0,2.3333333E0,-8.591435E-6,6E0,3.75E-1,1.0869565E0,1.1917864E0,-0E0,1.87E2,2E0,-1.4441145E-3,-0E0,-1.5624801E-3,1.8052293E-5,-5.411533E-5,3.5249495E-6,-0E0,3.23998E-5,-6.954187E-6,-0E0],"split_indices":[4,9,3,4,5,5,5,0,3,8,7,0,0,3,9,0,0,0,0,0,0,0,0,0,0],"split_type":[0,0,0,0,0,0,0,0,0,0,0,0,0,0,0,0,0,0,0,0,0,0,0,0,0],"sum_hessian":[7.6573E4,7.5074E4,1.499E3,7.3345E4,1.729E3,2.2E1,1.477E3,7.3282E4,6.3E1,1.87E2,1.542E3,1E0,2.1E1,7E1,1.407E3,1.4E1,4.9E1,4.4E1,1.43E2,1.037E3,5.05E2,5.7E1,1.3E1,1.131E3,2.76E2],"tree_param":{"num_deleted":"0","num_feature":"10","num_nodes":"25","size_leaf_vector":"1"}},{"base_weights":[6.925214E-4,2.5526166E-1,-8.1466E-6,-1.6882198E-2,6.0420756E0,-4.1147983E-3,-1.1137901E-1,1.1739097E0,1.5528651E-2,-3.4252815E-3,1.3909272E-4,-1.7739912E-2,-0E0,5.6581845E-4,-0E0],"categories":[],"categories_nodes":[],"categories_segments":[],"categories_sizes":[],"default_left":[0,0,0,0,0,0,0,0,0,0,0,0,0,0,0],"id":60,"left_children":[1,3,-1,5,7,9,11,-1,13,-1,-1,-1,-1,-1,-1],"loss_changes":[1.8799744E1,4.55835E2,0E0,3.221869E-1,2.58778E3,2.4842326E-1,1.7010608E0,0E0,6.6356035E-4,0E0,0E0,0E0,0E0,0E0,0E0],"parents":[2147483647,0,0,1,1,3,3,4,4,5,5,6,6,8,8],"right_children":[2,4,-1,6,8,10,12,-1,14,-1,-1,-1,-1,-1,-1],"split_conditions":[7E0,3E0,-8.1466E-6,2.1927E2,5E0,1.3333334E0,6E-1,1.1739097E0,3.6E0,-3.4252815E-3,1.3909272E-4,-1.7739912E-2,-0E0,5.6581845E-4,-0E0],"split_indices":[0,4,0,2,4,5,8,0,7,0,0,0,0,0,0],"split_type":[0,0,0,0,0,0,0,0,0,0,0,0,0,0,0],"sum_hessian":[7.6496E4,2.88E2,7.6208E4,2.76E2,1.2E1,2.45E2,3.1E1,1E0,1.1E1,1.8E1,2.27E2,5E0,2.6E1,9E0,2E0],"tree_param":{"num_deleted":"0","num_feature":"10","num_nodes":"15","size_leaf_vector":"1"}},{"base_weights":[5.6911283E-4,2.1863455E-1,-7.8957855E-6,-4.9255103E-2,5.1577544E0,-2.2762794E-2,-1.0891698E-1,1.1563009E0,1.2827479E-2,-1.7917425E-4,-5.030769E-3,6.174077E-4,-0E0],"categories":[],"categories_nodes":[],"categories_segments":[],"categories_sizes":[],"default_left":[0,0,0,0,0,0,0,0,0,0,0,0,0],"id":61,"left_children":[1,3,-1,5,7,9,-1,-1,11,-1,-1,-1,-1],"loss_changes":[1.3890633E1,3.8579837E2,0E0,2.5833008E1,2.5721477E3,6.5325385E-1,0E0,0E0,1.5083039E-3,0E0,0E0,0E0,0E0],"parents":[2147483647,0,0,1,1,3,3,4,4,5,5,8,8],"right_children":[2,4,-1,6,8,10,-1,-1,12,-1,-1,-1,-1],"split_conditions":[7E0,9E0,-7.8957855E-6,2E0,1E1,5.882353E-2,-1.0891698E-1,1.1563009E0,3.6E0,-1.7917425E-4,-5.030769E-3,6.174077E-4,-0E0],"split_indices":[0,3,0,1,3,6,0,0,7,0,0,0,0],"split_type":[0,0,0,0,0,0,0,0,0,0,0,0,0],"sum_hessian":[7.6412E4,2.9E2,7.6122E4,2.76E2,1.4E1,2.75E2,1E0,1E0,1.3E1,2.48E2,2.7E1,8E0,5E0],"tree_param":{"num_deleted":"0","num_feature":"10","num_nodes":"13","size_leaf_vector":"1"}},{"base_weights":[5.5283203E-4,-4.4763985E-4,5.1851086E-2,-3.509216E-4,-3.758948E-1,4.217781E0,-4.544535E-5,-2.662027E-4,-3.9628237E-3,-0E0,-1.7882258E0,1.1389564E0,-0E0,-0E0,-1.1605778E-4,-7.728223E-6,-3.0666622E-4,-7.7235984E-4,-3.832872E-5,-1.0728323E-1,-0E0,-0E0,3.305537E-5,-6.3167226E-6,-0E0],"categories":[],"categories_nodes":[],"categories_segments":[],"categories_sizes":[],"default_left":[0,0,0,0,0,0,0,0,0,0,0,0,0,0,0,0,0,0,0,0,0,0,0,0,0],"id":62,"left_children":[1,3,5,7,9,11,13,15,17,-1,19,-1,-1,21,23,-1,-1,-1,-1,-1,-1,-1,-1,-1,-1],"loss_changes":[3.9196305E0,2.6788611E0,3.1628625E2,2.2462737E-2,1.0106363E1,2.5625007E3,1.560552E-5,5.205554E-3,9.593807E-2,0E0,1.2786088E1,0E0,0E0,1.4568766E-5,2.978108E-5,0E0,0E0,0E0,0E0,0E0,0E0,0E0,0E0,0E0,0E0],"parents":[2147483647,0,0,1,1,2,2,3,3,4,4,5,5,6,6,7,7,8,8,10,10,13,13,14,14],"right_children":[2,4,6,8,10,12,14,16,18,-1,20,-1,-1,22,24,-1,-1,-1,-1,-1,-1,-1,-1,-1,-1],"split_conditions":[4.5E0,4E0,1E1,2E0,4.483E2,1.3333334E0,2.3333333E0,2.5E0,1.3333334E0,-0E0,4.6939E2,1.1389564E0,-0E0,1.87E2,2E0,-7.728223E-6,-3.0666622E-4,-7.7235984E-4,-3.832872E-5,-1.0728323E-1,-0E0,-0E0,3.305537E-5,-6.3167226E-6,-0E0],"split_indices":[4,4,3,9,2,5,5,4,5,0,2,0,0,3,9,0,0,0,0,0,0,0,0,0,0],"split_type":[0,0,0,0,0,0,0,0,0,0,0,0,0,0,0,0,0,0,0,0,0,0,0,0,0],"sum_hessian":[7.6271E4,7.4811E4,1.46E3,7.4793E4,1.8E1,1.7E1,1.443E3,7.3107E4,1.686E3,1.5E1,3E0,1E0,1.6E1,6.4E1,1.379E3,7.3055E4,5.2E1,1.8E2,1.506E3,1E0,2E0,5.3E1,1.1E1,1.09E3,2.89E2],"tree_param":{"num_deleted":"0","num_feature":"10","num_nodes":"25","size_leaf_vector":"1"}},{"base_weights":[-4.3354867E-4,-5.0116923E-2,-2.4473626E-4,-2.6085563E-2,-7.0317703E-1,-2.5600856E-4,1.1642832E-4,1.5300423E-3,-7.763368E-1,-1.1999301E0,4.068639E-4,-7.68315E-6,-0E0,6.1013016E-6,-1.1681739E-6,2.618635E-4,-0E0,-2.0614523E-3,-1.0567398E-1,-4.434008E-2,1.3564978E-3],"categories":[],"categories_nodes":[],"categories_segments":[],"categories_sizes":[],"default_left":[0,0,0,0,0,0,0,0,0,0,0,0,0,0,0,0,0,0,0,0,0],"id":63,"left_children":[1,3,5,7,9,11,13,15,17,19,-1,-1,-1,-1,-1,-1,-1,-1,-1,-1,-1],"loss_changes":[7.11066E-1,4.4128866E0,3.2360712E-4,5.838451E0,3.6953335E0,1.7532147E-6,4.3928892E-5,2.9512714E-3,1.8831043E1,2.2875566E0,0E0,0E0,0E0,0E0,0E0,0E0,0E0,0E0,0E0,0E0,0E0],"parents":[2147483647,0,0,1,1,2,2,3,3,4,4,5,5,6,6,7,7,8,8,9,9],"right_children":[2,4,6,8,10,12,14,16,18,20,-1,-1,-1,-1,-1,-1,-1,-1,-1,-1,-1],"split_conditions":[7E0,2E0,2E0,2E0,2E0,4E0,9E0,3.846154E-2,3.868E2,1.0869565E0,4.068639E-4,-7.68315E-6,-0E0,6.1013016E-6,-1.1681739E-6,2.618635E-4,-0E0,-2.0614523E-3,-1.0567398E-1,-4.434008E-2,1.3564978E-3],"split_indices":[0,9,9,1,1,1,3,8,2,7,0,0,0,0,0,0,0,0,0,0,0],"split_type":[0,0,0,0,0,0,0,0,0,0,0,0,0,0,0,0,0,0,0,0,0],"sum_hessian":[7.6337E4,2.86E2,7.6051E4,2.77E2,9E0,7.4018E4,2.033E3,2.68E2,9E0,5E0,4E0,7.3989E4,2.9E1,1.716E3,3.17E2,4.6E1,2.22E2,8E0,1E0,4E0,1E0],"tree_param":{"num_deleted":"0","num_feature":"10","num_nodes":"21","size_leaf_vector":"1"}},{"base_weights":[5.972606E-4,2.2084598E-1,-2.3762483E-4,-2.5067272E-2,7.1189237E0,-7.4607956E-6,1.1524315E-4,1.0090726E-3,-5.70411E-1,-4.4576147E-1,2.4951777E1,1.778594E-3,-0E0,1.9191296E-4,-0E0,-7.644064E-2,3.5105544E-4,-4.8441697E-2,5.8903904E-3,1.121866E0,-0E0,5.5878256E-5,-0E0],"categories":[],"categories_nodes":[],"categories_segments":[],"categories_sizes":[],"default_left":[0,0,0,0,0,0,0,0,0,0,0,0,0,0,0,0,0,0,0,0,0,0,0],"id":64,"left_children":[1,3,5,7,9,-1,11,13,15,17,19,21,-1,-1,-1,-1,-1,-1,-1,-1,-1,-1,-1],"loss_changes":[1.4121117E1,4.9282312E2,3.1170808E-4,4.0534964E0,1.3625723E3,0E0,5.5485225E-4,1.4857802E-3,1.5248951E1,6.4636784E0,9.2907837E2,3.2003038E-5,0E0,0E0,0E0,0E0,0E0,0E0,0E0,0E0,0E0,0E0,0E0],"parents":[2147483647,0,0,1,1,2,2,3,3,4,4,6,6,7,7,8,8,9,9,10,10,11,11],"right_children":[2,4,6,8,10,-1,12,14,16,18,20,22,-1,-1,-1,-1,-1,-1,-1,-1,-1,-1,-1],"split_conditions":[7E0,2E0,2E0,1E0,1.8E0,-7.4607956E-6,1.3333334E0,3.846154E-2,9E0,1.3333334E0,1E1,1E0,-0E0,1.9191296E-4,-0E0,-7.644064E-2,3.5105544E-4,-4.8441697E-2,5.8903904E-3,1.121866E0,-0E0,5.5878256E-5,-0E0],"split_indices":[0,9,9,3,7,0,5,8,3,5,3,3,0,0,0,0,0,0,0,0,0,0,0],"split_type":[0,0,0,0,0,0,0,0,0,0,0,0,0,0,0,0,0,0,0,0,0,0,0],"sum_hessian":[7.6673E4,2.89E2,7.6384E4,2.8E2,9E0,7.4336E4,2.048E3,2.68E2,1.2E1,7E0,2E0,1.83E2,1.865E3,4.2E1,2.26E2,2E0,1E1,2E0,5E0,1E0,1E0,1.76E2,7E0],"tree_param":{"num_deleted":"0","num_feature":"10","num_nodes":"23","size_leaf_vector":"1"}},{"base_weights":[5.573287E-4,2.0422882E-1,-2.3022002E-4,-4.856533E-2,5.28878E0,-2.4105396E-4,1.1823723E-4,-2.395945E-2,-1.02942266E-1,1.105038E0,2.1055521E-2,-7.234531E-6,-0E0,1.70421E-3,-0E0,-2.3396196E-6,-2.833354E-2,1.081769E-3,-0E0,5.305703E-5,-0E0],"categories":[],"categories_nodes":[],"categories_segments":[],"categories_sizes":[],"default_left":[0,0,0,0,0,0,0,0,0,0,0,0,0,0,0,0,0,0,0,0,0],"id":65,"left_children":[1,3,5,7,9,11,13,15,-1,-1,17,-1,-1,19,-1,-1,-1,-1,-1,-1,-1],"loss_changes":[1.2284564E1,3.799576E2,2.9984582E-4,2.304532E1,2.3219849E3,2.0749867E-6,5.352146E-4,6.0826106E0,0E0,0E0,3.338389E-3,0E0,0E0,2.4592096E-5,0E0,0E0,0E0,0E0,0E0,0E0,0E0],"parents":[2147483647,0,0,1,1,2,2,3,3,4,4,5,5,6,6,7,7,10,10,13,13],"right_children":[2,4,6,8,10,12,14,16,-1,-1,18,-1,-1,20,-1,-1,-1,-1,-1,-1,-1],"split_conditions":[7E0,9E0,2E0,6E0,1E1,4E0,1.3333334E0,2E0,-1.02942266E-1,1.105038E0,1.9E2,-7.234531E-6,-0E0,1E0,-0E0,-2.3396196E-6,-2.833354E-2,1.081769E-3,-0E0,5.305703E-5,-0E0],"split_indices":[0,3,9,3,3,1,5,9,0,0,3,0,0,3,0,0,0,0,0,0,0],"split_type":[0,0,0,0,0,0,0,0,0,0,0,0,0,0,0,0,0,0,0,0,0],"sum_hessian":[7.6458E4,2.94E2,7.6164E4,2.81E2,1.3E1,7.4146E4,2.018E3,2.8E2,1E0,1E0,1.2E1,7.4122E4,2.4E1,1.93E2,1.825E3,2.74E2,6E0,6E0,6E0,1.87E2,6E0],"tree_param":{"num_deleted":"0","num_feature":"10","num_nodes":"21","size_leaf_vector":"1"}},{"base_weights":[5.513106E-4,-4.002931E-4,4.9345963E-2,-3.092478E-4,-3.3748296E-1,3.4548635E0,-8.466757E-6,-2.3488674E-4,-3.4274394E-3,-0E0,-1.6901295E0,-0E0,1.0884625E0,-1.424635E-4,3.0810942E-4,-6.8366494E-6,-2.5504467E-4,-3.0940424E-5,-5.290211E-4,-1.01398125E-1,-0E0,-4.521767E-6,-0E0,1.2958953E-4,-0E0],"categories":[],"categories_nodes":[],"categories_segments":[],"categories_sizes":[],"default_left":[0,0,0,0,0,0,0,0,0,0,0,0,0,0,0,0,0,0,0,0,0,0,0,0,0],"id":66,"left_children":[1,3,5,7,9,11,13,15,17,-1,19,-1,-1,21,23,-1,-1,-1,-1,-1,-1,-1,-1,-1,-1],"loss_changes":[3.563367E0,2.2730374E0,2.470831E2,1.7058145E-2,9.148255E0,2.382121E3,4.4903714E-5,3.3733975E-3,5.6630574E-2,0E0,1.1421805E1,0E0,0E0,2.890125E-6,4.839627E-4,0E0,0E0,0E0,0E0,0E0,0E0,0E0,0E0,0E0,0E0],"parents":[2147483647,0,0,1,1,2,2,3,3,4,4,5,5,6,6,7,7,8,8,10,10,13,13,14,14],"right_children":[2,4,6,8,10,12,14,16,18,-1,20,-1,-1,22,24,-1,-1,-1,-1,-1,-1,-1,-1,-1,-1],"split_conditions":[4.5E0,4E0,1E1,2E0,4.483E2,6E-1,4.9512E2,2.5E0,7.5E-1,-0E0,4.6939E2,-0E0,1.0884625E0,5.21E2,5.2293E2,-6.8366494E-6,-2.5504467E-4,-3.0940424E-5,-5.290211E-4,-1.01398125E-1,-0E0,-4.521767E-6,-0E0,1.2958953E-4,-0E0],"split_indices":[4,4,3,9,2,6,2,4,6,0,2,0,0,3,2,0,0,0,0,0,0,0,0,0,0],"split_type":[0,0,0,0,0,0,0,0,0,0,0,0,0,0,0,0,0,0,0,0,0,0,0,0,0],"sum_hessian":[7.6635E4,7.5168E4,1.467E3,7.5149E4,1.9E1,2E1,1.447E3,7.3431E4,1.718E3,1.6E1,3E0,1.9E1,1E0,1.239E3,2.08E2,7.3382E4,4.9E1,1.477E3,2.41E2,1E0,2E0,1.234E3,5E0,2.6E1,1.82E2],"tree_param":{"num_deleted":"0","num_feature":"10","num_nodes":"25","size_leaf_vector":"1"}},{"base_weights":[5.531614E-4,1.995769E-1,-2.1482132E-4,-2.3348259E-2,5.448597E0,-2.2700068E-4,1.9302021E-4,1.3298966E-3,-5.4368913E-1,-6.0557157E-1,2.3846294E1,-6.812781E-6,-0E0,2.1508047E-3,-0E0,3.7029054E-4,1.4325968E-7,-7.2865844E-2,3.2352476E-4,-4.6895612E-2,-4.7480785E-3,1.0721354E0,-0E0,6.669508E-5,-0E0],"categories":[],"categories_nodes":[],"categories_segments":[],"categories_sizes":[],"default_left":[0,0,0,0,0,0,0,0,0,0,0,0,0,0,0,0,0,0,0,0,0,0,0,0,0],"id":67,"left_children":[1,3,5,7,9,11,13,15,17,19,21,-1,-1,23,-1,-1,-1,-1,-1,-1,-1,-1,-1,-1,-1],"loss_changes":[1.1690444E1,3.4469052E2,3.8125576E-4,3.6889768E0,1.3533577E3,1.4975667E-6,8.0098526E-4,2.7200608E-3,1.3856614E1,3.8638859E0,8.4845056E2,0E0,0E0,3.5110163E-5,0E0,0E0,0E0,0E0,0E0,0E0,0E0,0E0,0E0,0E0,0E0],"parents":[2147483647,0,0,1,1,2,2,3,3,4,4,5,5,6,6,7,7,8,8,9,9,10,10,13,13],"right_children":[2,4,6,8,10,12,14,16,18,20,22,-1,-1,24,-1,-1,-1,-1,-1,-1,-1,-1,-1,-1,-1],"split_conditions":[7E0,2E0,2E0,2E0,1.8E0,4E0,1.3333334E0,1.3333334E0,9E0,1.3333334E0,1E1,-6.812781E-6,-0E0,3E0,-0E0,3.7029054E-4,1.4325968E-7,-7.2865844E-2,3.2352476E-4,-4.6895612E-2,-4.7480785E-3,1.0721354E0,-0E0,6.669508E-5,-0E0],"split_indices":[0,9,9,1,7,1,5,5,3,5,3,0,0,3,0,0,0,0,0,0,0,0,0,0,0],"split_type":[0,0,0,0,0,0,0,0,0,0,0,0,0,0,0,0,0,0,0,0,0,0,0,0,0],"sum_hessian":[7.6353E4,2.93E2,7.606E4,2.82E2,1.1E1,7.4093E4,1.967E3,2.7E2,1.2E1,9E0,2E0,7.4062E4,3.1E1,1.88E2,1.779E3,2E1,2.5E2,2E0,1E1,2E0,7E0,1E0,1E0,1.83E2,5E0],"tree_param":{"num_deleted":"0","num_feature":"10","num_nodes":"25","size_leaf_vector":"1"}},{"base_weights":[-3.7457907E-4,-2.8348702E-4,-4.651851E-3,-6.465047E-6,-3.0619288E-3,-9.011219E-2,-1.2001836E-4,-2.091959E-2,-7.621818E-4,-5.6202477E-3,-4.37937E-1,-1.7012678E-4,-0E0,-1.7978062E-3,1.8117174E-5,2.9970577E-5,-3.617787E-4,-1.0801821E-3,-0E0,-9.878417E-2,-0E0,-5.2499827E-6,-0E0],"categories":[],"categories_nodes":[],"categories_segments":[],"categories_sizes":[],"default_left":[0,0,0,0,0,0,0,0,0,0,0,0,0,0,0,0,0,0,0,0,0,0,0],"id":68,"left_children":[1,3,5,-1,7,9,11,13,15,17,19,21,-1,-1,-1,-1,-1,-1,-1,-1,-1,-1,-1],"loss_changes":[2.9287724E-2,1.3813874E-2,5.9940165E-1,0E0,6.980826E-2,2.2454777E0,1.30089575E-5,1.6968524E-1,3.2136686E-2,1.2239228E-2,1.8808304E1,1.2406272E-6,0E0,0E0,0E0,0E0,0E0,0E0,0E0,0E0,0E0,0E0,0E0],"parents":[2147483647,0,0,1,1,2,2,4,4,5,5,6,6,7,7,8,8,9,9,10,10,11,11],"right_children":[2,4,6,-1,8,10,12,14,16,18,20,22,-1,-1,-1,-1,-1,-1,-1,-1,-1,-1,-1],"split_conditions":[5E0,2E0,9E0,-6.465047E-6,1.3333334E0,4.483E2,2E0,9.502E1,2.3473E2,3.846154E-2,4.6939E2,4E0,-0E0,-1.7978062E-3,1.8117174E-5,2.9970577E-5,-3.617787E-4,-1.0801821E-3,-0E0,-9.878417E-2,-0E0,-5.2499827E-6,-0E0],"split_indices":[3,9,3,0,5,2,9,2,2,8,2,1,0,0,0,0,0,0,0,0,0,0,0],"split_type":[0,0,0,0,0,0,0,0,0,0,0,0,0,0,0,0,0,0,0,0,0,0,0],"sum_hessian":[7.6438E4,7.4868E4,1.57E3,7.3116E4,1.752E3,7.7E1,1.493E3,1.94E2,1.558E3,6.3E1,1.4E1,1.192E3,3.01E2,7E1,1.24E2,1.341E3,2.17E2,1E1,5.3E1,1E0,1.3E1,1.167E3,2.5E1],"tree_param":{"num_deleted":"0","num_feature":"10","num_nodes":"23","size_leaf_vector":"1"}},{"base_weights":[5.885632E-4,2.0216821E-1,-1.9946514E-4,-2.0025512E-2,6.61335E0,-2.1328045E-4,2.520496E-4,1.3611089E-3,-6.2684834E-1,-4.6334037E-1,1.0560534E0,-6.4010674E-6,-0E0,2.6029462E-3,-0E0,3.546883E-4,3.7879222E-6,-9.730241E-2,3.944787E-4,-2.5984017E-2,3.6363775E-4,1.5922259E-4,1.7430826E-5],"categories":[],"categories_nodes":[],"categories_segments":[],"categories_sizes":[],"default_left":[0,0,0,0,0,0,0,0,0,0,0,0,0,0,0,0,0,0,0,0,0,0,0],"id":69,"left_children":[1,3,5,7,9,11,13,15,17,19,-1,-1,-1,21,-1,-1,-1,-1,-1,-1,-1,-1,-1],"loss_changes":[1.2156414E1,4.2530002E2,4.7089322E-4,3.8140125E0,2.0428989E3,1.6572885E-6,1.1573957E-3,2.4208343E-3,1.7111633E1,1.8195156E0,0E0,0E0,0E0,4.4703425E-4,0E0,0E0,0E0,0E0,0E0,0E0,0E0,0E0,0E0],"parents":[2147483647,0,0,1,1,2,2,3,3,4,4,5,5,6,6,7,7,8,8,9,9,13,13],"right_children":[2,4,6,8,10,12,14,16,18,20,-1,-1,-1,22,-1,-1,-1,-1,-1,-1,-1,-1,-1],"split_conditions":[7E0,2E0,2E0,2E0,2.3774E2,4E0,1.3333334E0,1.3333334E0,4.5E0,2E0,1.0560534E0,-6.4010674E-6,-0E0,9.502E1,-0E0,3.546883E-4,3.7879222E-6,-9.730241E-2,3.944787E-4,-2.5984017E-2,3.6363775E-4,1.5922259E-4,1.7430826E-5],"split_indices":[0,9,9,1,2,1,5,5,4,1,0,0,0,2,0,0,0,0,0,0,0,0,0],"split_type":[0,0,0,0,0,0,0,0,0,0,0,0,0,0,0,0,0,0,0,0,0,0,0],"sum_hessian":[7.6399E4,2.97E2,7.6102E4,2.88E2,9E0,7.4058E4,2.044E3,2.79E2,9E0,8E0,1E0,7.4033E4,2.5E1,1.89E2,1.855E3,2E1,2.59E2,1E0,8E0,4E0,4E0,5.9E1,1.3E2],"tree_param":{"num_deleted":"0","num_feature":"10","num_nodes":"23","size_leaf_vector":"1"}},{"base_weights":[6.3624326E-4,2.2307086E-1,-1.937507E-4,-2.305051E-2,5.36322E0,-2.0735647E-4,2.5189793E-4,-0E0,-8.887823E-1,1.0402126E0,2.2862889E-2,-6.2233808E-6,-0E0,2.5444063E-3,-0E0,3.4935496E-5,-5.3528873E-3,6.8456256E-3,-4.2036228E-2,1.053436E-3,-0E0,1.5466273E-4,1.5178327E-5],"categories":[],"categories_nodes":[],"categories_segments":[],"categories_sizes":[],"default_left":[0,0,0,0,0,0,0,0,0,0,0,0,0,0,0,0,0,0,0,0,0,0,0],"id":70,"left_children":[1,3,5,7,9,11,13,15,17,-1,19,-1,-1,21,-1,-1,-1,-1,-1,-1,-1,-1,-1],"loss_changes":[1.4103991E1,3.5994623E2,4.5636133E-4,5.385017E0,2.0306112E3,1.5855767E-6,1.1204202E-3,6.403359E-2,4.443587E0,0E0,2.3586736E-3,0E0,0E0,4.5848975E-4,0E0,0E0,0E0,0E0,0E0,0E0,0E0,0E0,0E0],"parents":[2147483647,0,0,1,1,2,2,3,3,4,4,5,5,6,6,7,7,8,8,10,10,13,13],"right_children":[2,4,6,8,10,12,14,16,18,-1,20,-1,-1,22,-1,-1,-1,-1,-1,-1,-1,-1,-1],"split_conditions":[7E0,6E0,2E0,2E0,1E1,4E0,1.3333334E0,2E0,5.669E1,1.0402126E0,1.9E2,-6.2233808E-6,-0E0,9.502E1,-0E0,3.4935496E-5,-5.3528873E-3,6.8456256E-3,-4.2036228E-2,1.053436E-3,-0E0,1.5466273E-4,1.5178327E-5],"split_indices":[0,3,9,9,3,1,5,1,2,0,3,0,0,2,0,0,0,0,0,0,0,0,0],"split_type":[0,0,0,0,0,0,0,0,0,0,0,0,0,0,0,0,0,0,0,0,0,0,0],"sum_hessian":[7.6273E4,2.83E2,7.599E4,2.71E2,1.2E1,7.3957E4,2.033E3,2.65E2,6E0,1E0,1.1E1,7.393E4,2.7E1,1.92E2,1.841E3,2.64E2,1E0,2E0,4E0,6E0,5E0,6.2E1,1.3E2],"tree_param":{"num_deleted":"0","num_feature":"10","num_nodes":"23","size_leaf_vector":"1"}},{"base_weights":[6.669119E-4,-2.2993029E-4,4.585641E-2,-1.988879E-4,-1.4934621E-3,4.017538E0,-0E0,-1.9482877E-4,-3.0488232E-3,-2.7270236E-5,-9.336334E-3,1.0246094E0,-0E0,1.3662347E-3,-8.2965795E-5,-3.8076257E-6,-6.050012E-6,-7.242242E-4,1.8219429E-6,-3.3331476E-4,3.4096523E-5,-7.6872716E-3,4.18054E-6,-0E0,2.5031177E-4,-4.7735825E-6,-0E0],"categories":[],"categories_nodes":[],"categories_segments":[],"categories_sizes":[],"default_left":[0,0,0,0,0,0,0,0,0,0,0,0,0,0,0,0,0,0,0,0,0,0,0,0,0,0,0],"id":71,"left_children":[1,3,5,7,9,11,13,15,17,19,21,-1,-1,23,25,-1,-1,-1,-1,-1,-1,-1,-1,-1,-1,-1,-1],"loss_changes":[3.101063E0,2.7689026E-3,2.712593E2,5.2181515E-4,1.8830433E-2,2.058553E3,1.4404544E-4,1.0752119E-6,6.934955E-3,1.9842396E-2,6.3394314E-1,0E0,0E0,8.4025343E-4,1.8681529E-5,0E0,0E0,0E0,0E0,0E0,0E0,0E0,0E0,0E0,0E0,0E0,0E0],"parents":[2147483647,0,0,1,1,2,2,3,3,4,4,5,5,6,6,7,7,8,8,9,9,10,10,13,13,14,14],"right_children":[2,4,6,8,10,12,14,16,18,20,22,-1,-1,24,26,-1,-1,-1,-1,-1,-1,-1,-1,-1,-1,-1,-1],"split_conditions":[4.5E0,2E0,1E1,2.5E0,2.3473E2,1.3333334E0,2.3333333E0,1.3333334E0,6E0,1.3333334E0,2.3774E2,1.0246094E0,-0E0,1.82E2,2E0,-3.8076257E-6,-6.050012E-6,-7.242242E-4,1.8219429E-6,-3.3331476E-4,3.4096523E-5,-7.6872716E-3,4.18054E-6,-0E0,2.5031177E-4,-4.7735825E-6,-0E0],"split_indices":[4,9,3,4,2,5,5,5,3,5,2,0,0,3,9,0,0,0,0,0,0,0,0,0,0,0,0],"split_type":[0,0,0,0,0,0,0,0,0,0,0,0,0,0,0,0,0,0,0,0,0,0,0,0,0,0,0],"sum_hessian":[7.6403E4,7.4915E4,1.488E3,7.3197E4,1.718E3,1.6E1,1.472E3,7.3129E4,6.8E1,1.459E3,2.59E2,1E0,1.5E1,7.1E1,1.401E3,8.03E3,6.5099E4,1.2E1,5.6E1,1.46E2,1.313E3,9E0,2.5E2,5.8E1,1.3E1,1.118E3,2.83E2],"tree_param":{"num_deleted":"0","num_feature":"10","num_nodes":"27","size_leaf_vector":"1"}},{"base_weights":[5.562559E-4,1.979212E-1,-1.8047963E-4,-4.1095994E-2,4.509637E0,-8.295801E-5,-5.726302E-6,-1.3360277E-2,-1.1144609E-1,1.0092403E0,1.8705133E-2,1.749518E-4,-5.550996E-6,-6.947985E-5,-3.0484179E-3,9.2986294E-5,1.8236669E-3,-1.7457306E-6,8.6913795E-5],"categories":[],"categories_nodes":[],"categories_segments":[],"categories_sizes":[],"default_left":[0,0,0,0,0,0,0,0,0,0,0,0,0,0,0,0,0,0,0],"id":72,"left_children":[1,3,5,7,9,11,-1,13,-1,-1,15,17,-1,-1,-1,-1,-1,-1,-1],"loss_changes":[1.114306E1,2.943458E2,4.9877446E-5,2.7191021E1,1.9584323E3,2.1878447E-4,0E0,2.5254017E-1,0E0,0E0,2.617125E-3,1.5965297E-3,0E0,0E0,0E0,0E0,0E0,0E0,0E0],"parents":[2147483647,0,0,1,1,2,2,3,3,4,4,5,5,7,7,10,10,11,11],"right_children":[2,4,6,8,10,12,-1,14,-1,-1,16,18,-1,-1,-1,-1,-1,-1,-1],"split_conditions":[7E0,9E0,1.3333334E0,6E0,1E1,7.1428573E-1,-5.726302E-6,2.1927E2,-1.1144609E-1,1.0092403E0,3.868E2,3.846154E-2,-5.550996E-6,-6.947985E-5,-3.0484179E-3,9.2986294E-5,1.8236669E-3,-1.7457306E-6,8.6913795E-5],"split_indices":[0,3,5,3,3,8,0,2,0,0,2,8,0,0,0,0,0,0,0],"split_type":[0,0,0,0,0,0,0,0,0,0,0,0,0,0,0,0,0,0,0],"sum_hessian":[7.6497E4,2.84E2,7.6213E4,2.7E2,1.4E1,8.27E3,6.7943E4,2.69E2,1E0,1E0,1.3E1,2.067E3,6.203E3,2.41E2,2.8E1,1.2E1,1E0,1.871E3,1.96E2],"tree_param":{"num_deleted":"0","num_feature":"10","num_nodes":"19","size_leaf_vector":"1"}},{"base_weights":[5.229856E-4,2.0457442E-1,-1.7512651E-4,-5.249745E-2,7.3909674E0,-5.688165E-6,2.953215E-4,-2.315165E-2,-1.097744E-1,9.9410164E-1,1.8157898E-2,-0E0,2.30481E-3,-0E0,-2.5076924E-2,-0E0,1.7963119E-3,1.2379115E-4,1.9211293E-5],"categories":[],"categories_nodes":[],"categories_segments":[],"categories_sizes":[],"default_left":[0,0,0,0,0,0,0,0,0,0,0,0,0,0,0,0,0,0,0],"id":73,"left_children":[1,3,5,7,9,-1,11,13,-1,-1,15,-1,17,-1,-1,-1,-1,-1,-1],"loss_changes":[1.0862689E1,4.814509E2,5.0616567E-4,2.6218737E1,1.7044498E3,0E0,1.2653293E-3,4.7565365E0,0E0,0E0,4.5328513E-3,0E0,3.4535094E-4,0E0,0E0,0E0,0E0,0E0,0E0],"parents":[2147483647,0,0,1,1,2,2,3,3,4,4,6,6,7,7,10,10,12,12],"right_children":[2,4,6,8,10,-1,12,14,-1,-1,16,-1,18,-1,-1,-1,-1,-1,-1],"split_conditions":[7E0,9E0,2E0,6E0,1E1,-5.688165E-6,7.5E-1,2E0,-1.097744E-1,9.9410164E-1,3.868E2,-0E0,9.502E1,-0E0,-2.5076924E-2,-0E0,1.7963119E-3,1.2379115E-4,1.9211293E-5],"split_indices":[0,3,9,3,3,0,6,9,0,0,2,0,2,0,0,0,0,0,0],"split_type":[0,0,0,0,0,0,0,0,0,0,0,0,0,0,0,0,0,0,0],"sum_hessian":[7.6111E4,2.59E2,7.5852E4,2.51E2,8E0,7.3794E4,2.058E3,2.5E2,1E0,1E0,7E0,1.787E3,2.71E2,2.44E2,6E0,6E0,1E0,1E2,1.71E2],"tree_param":{"num_deleted":"0","num_feature":"10","num_nodes":"19","size_leaf_vector":"1"}},{"base_weights":[-2.0236436E-4,-8.277623E-3,-1.7159694E-4,-1.8436313E-1,6.438948E-3,-1.8382953E-4,2.3182904E-4,1.24593E-2,-4.4051748E-2,-0E0,2.1057959E-1,-5.517464E-6,-0E0,2.6275595E-3,-0E0,9.985793E-4,-0E0,-2.8961216E-5,6.08484E-4,9.263949E-3,3.0484036E-4,1.5087138E-4,1.6797612E-5],"categories":[],"categories_nodes":[],"categories_segments":[],"categories_sizes":[],"default_left":[0,0,0,0,0,0,0,0,0,0,0,0,0,0,0,0,0,0,0,0,0,0,0],"id":74,"left_children":[1,3,5,7,9,11,13,15,-1,17,19,-1,-1,21,-1,-1,-1,-1,-1,-1,-1,-1,-1],"loss_changes":[1.8159965E-2,7.393818E-1,3.713891E-4,5.723851E0,3.440949E-1,1.3986137E-6,1.0936575E-3,2.435099E-3,0E0,4.33852E-3,1.2244472E-1,0E0,0E0,3.022682E-4,0E0,0E0,0E0,0E0,0E0,0E0,0E0,0E0,0E0],"parents":[2147483647,0,0,1,1,2,2,3,3,4,4,5,5,6,6,7,7,9,9,10,10,13,13],"right_children":[2,4,6,8,10,12,14,16,-1,18,20,-1,-1,22,-1,-1,-1,-1,-1,-1,-1,-1,-1],"split_conditions":[7E0,1.3333334E0,2E0,2E0,2E0,4E0,1.3333334E0,3.846154E-2,-4.4051748E-2,4.9512E2,2E0,-5.517464E-6,-0E0,9.502E1,-0E0,9.985793E-4,-0E0,-2.8961216E-5,6.08484E-4,9.263949E-3,3.0484036E-4,1.5087138E-4,1.6797612E-5],"split_indices":[0,5,9,9,9,1,5,8,0,2,1,0,0,2,0,0,0,0,0,0,0,0,0],"split_type":[0,0,0,0,0,0,0,0,0,0,0,0,0,0,0,0,0,0,0,0,0,0,0],"sum_hessian":[7.6497E4,2.77E2,7.622E4,2.1E1,2.56E2,7.4218E4,2.002E3,1.9E1,2E0,2.49E2,7E0,7.419E4,2.8E1,1.73E2,1.829E3,4E0,1.5E1,2.4E2,9E0,4E0,3E0,5.7E1,1.16E2],"tree_param":{"num_deleted":"0","num_feature":"10","num_nodes":"23","size_leaf_vector":"1"}},{"base_weights":[5.4908055E-4,1.8588367E-1,-1.6499404E-4,-2.4907807E-2,5.6203284E0,-1.7804657E-4,2.5864813E-4,1.8308291E-3,-6.3946944E-1,-3.399778E-1,9.798509E-1,-5.3883837E-6,-6.0434318E-6,2.8078633E-3,-0E0,4.7229067E-4,1.184693E-5,-9.958459E-4,-1.0812735E-1,-2.5342598E-3,-3.80925E-2,2.9470817E-5,-4.150724E-6,1.5401053E-4,1.6158421E-5],"categories":[],"categories_nodes":[],"categories_segments":[],"categories_sizes":[],"default_left":[0,0,0,0,0,0,0,0,0,0,0,0,0,0,0,0,0,0,0,0,0,0,0,0,0],"id":75,"left_children":[1,3,5,7,9,11,13,15,17,19,-1,-1,21,23,-1,-1,-1,-1,-1,-1,-1,-1,-1,-1,-1],"loss_changes":[1.0137526E1,3.3748672E2,4.1315937E-4,4.7317758E0,1.7872595E3,1.4004763E-6,1.2978968E-3,3.8336997E-3,2.1086231E1,2.132906E0,0E0,0E0,7.868714E-5,3.905769E-4,0E0,0E0,0E0,0E0,0E0,0E0,0E0,0E0,0E0,0E0,0E0],"parents":[2147483647,0,0,1,1,2,2,3,3,4,4,5,5,6,6,7,7,8,8,9,9,12,12,13,13],"right_children":[2,4,6,8,10,12,14,16,18,20,-1,-1,22,24,-1,-1,-1,-1,-1,-1,-1,-1,-1,-1,-1],"split_conditions":[7E0,2E0,2E0,5E-1,2.3774E2,2.5E0,1.3333334E0,1.3333334E0,3.868E2,2.2204E2,9.798509E-1,-5.3883837E-6,4E0,9.502E1,-0E0,4.7229067E-4,1.184693E-5,-9.958459E-4,-1.0812735E-1,-2.5342598E-3,-3.80925E-2,2.9470817E-5,-4.150724E-6,1.5401053E-4,1.6158421E-5],"split_indices":[0,9,9,4,2,4,5,5,2,2,0,0,4,2,0,0,0,0,0,0,0,0,0,0,0],"split_type":[0,0,0,0,0,0,0,0,0,0,0,0,0,0,0,0,0,0,0,0,0,0,0,0,0],"sum_hessian":[7.6459E4,2.93E2,7.6166E4,2.83E2,1E1,7.4119E4,2.047E3,2.72E2,1.1E1,9E0,1E0,7.2874E4,1.245E3,1.81E2,1.866E3,1.8E1,2.54E2,1E1,1E0,8E0,1E0,5.7E1,1.188E3,6.7E1,1.14E2],"tree_param":{"num_deleted":"0","num_feature":"10","num_nodes":"25","size_leaf_vector":"1"}},{"base_weights":[5.1979185E-4,1.7675991E-1,-1.5975504E-4,-2.3859853E-2,5.331181E0,-5.181892E-6,2.7092954E-4,1.3753719E-3,-7.2291905E-1,-5.6005496E-1,9.6515316E-1,2.6349046E-3,-0E0,1.9107603E-4,-0E0,-1.3286415E-3,-6.774886E-2,-4.312003E-2,-4.457049E-3,1.4782653E-4,1.9527697E-5],"categories":[],"categories_nodes":[],"categories_segments":[],"categories_sizes":[],"default_left":[0,0,0,0,0,0,0,0,0,0,0,0,0,0,0,0,0,0,0,0,0],"id":76,"left_children":[1,3,5,7,9,-1,11,13,15,17,-1,19,-1,-1,-1,-1,-1,-1,-1,-1,-1],"loss_changes":[9.135877E0,3.03643E2,4.1403773E-4,5.065528E0,1.7605459E3,0E0,1.1936536E-3,1.4288912E-3,1.0089266E1,3.2377553E0,0E0,3.168187E-4,0E0,0E0,0E0,0E0,0E0,0E0,0E0,0E0,0E0],"parents":[2147483647,0,0,1,1,2,2,3,3,4,4,6,6,7,7,8,8,9,9,11,11],"right_children":[2,4,6,8,10,-1,12,14,16,18,-1,20,-1,-1,-1,-1,-1,-1,-1,-1,-1],"split_conditions":[7E0,2E0,2E0,2E0,2.3774E2,-5.181892E-6,1.3333334E0,3.846154E-2,3.868E2,1.3333334E0,9.6515316E-1,9.502E1,-0E0,1.9107603E-4,-0E0,-1.3286415E-3,-6.774886E-2,-4.312003E-2,-4.457049E-3,1.4782653E-4,1.9527697E-5],"split_indices":[0,9,9,1,2,0,5,8,2,5,0,2,0,0,0,0,0,0,0,0,0],"split_type":[0,0,0,0,0,0,0,0,0,0,0,0,0,0,0,0,0,0,0,0,0],"sum_hessian":[7.6134E4,2.92E2,7.5842E4,2.82E2,1E1,7.385E4,1.992E3,2.73E2,9E0,9E0,1E0,1.92E2,1.8E3,4.7E1,2.26E2,7E0,2E0,2E0,7E0,6.5E1,1.27E2],"tree_param":{"num_deleted":"0","num_feature":"10","num_nodes":"21","size_leaf_vector":"1"}},{"base_weights":[5.237111E-4,1.7804493E-1,-1.555753E-4,-2.1472868E-2,5.2677226E0,-5.0316494E-6,2.4271225E-4,1.8559926E-3,-6.0335E-1,-5.333437E-1,9.506758E-1,2.4503837E-3,-0E0,4.432201E-4,1.2796895E-5,-1.054892E-1,8.872915E-4,-4.225763E-2,-3.7787764E-3,1.3847701E-4,1.7220254E-5],"categories":[],"categories_nodes":[],"categories_segments":[],"categories_sizes":[],"default_left":[0,0,0,0,0,0,0,0,0,0,0,0,0,0,0,0,0,0,0,0,0],"id":77,"left_children":[1,3,5,7,9,-1,11,13,15,17,-1,19,-1,-1,-1,-1,-1,-1,-1,-1,-1],"loss_changes":[9.205637E0,2.961428E2,3.5973545E-4,3.8757122E0,1.7060166E3,0E0,9.928151E-4,3.4777606E-3,2.073323E1,3.234729E0,0E0,2.3007416E-4,0E0,0E0,0E0,0E0,0E0,0E0,0E0,0E0,0E0],"parents":[2147483647,0,0,1,1,2,2,3,3,4,4,6,6,7,7,8,8,9,9,11,11],"right_children":[2,4,6,8,10,-1,12,14,16,18,-1,20,-1,-1,-1,-1,-1,-1,-1,-1,-1],"split_conditions":[7E0,2E0,2E0,1E0,2.3774E2,-5.0316494E-6,1.3333334E0,1.3333334E0,9E0,1.3333334E0,9.506758E-1,9.502E1,-0E0,4.432201E-4,1.2796895E-5,-1.054892E-1,8.872915E-4,-4.225763E-2,-3.7787764E-3,1.3847701E-4,1.7220254E-5],"split_indices":[0,9,9,3,2,0,5,5,3,5,0,2,0,0,0,0,0,0,0,0,0],"split_type":[0,0,0,0,0,0,0,0,0,0,0,0,0,0,0,0,0,0,0,0,0],"sum_hessian":[7.6191E4,2.9E2,7.5901E4,2.8E2,1E1,7.3899E4,2.002E3,2.7E2,1E1,9E0,1E0,1.84E2,1.818E3,1.9E1,2.51E2,1E0,9E0,2E0,7E0,6E1,1.24E2],"tree_param":{"num_deleted":"0","num_feature":"10","num_nodes":"21","size_leaf_vector":"1"}},{"base_weights":[5.1540753E-4,1.6929092E-1,-1.5066282E-4,-4.1426964E-2,4.4991093E0,-4.886936E-6,2.5557668E-4,-1.7086554E-2,-1.0390686E-1,9.364157E-1,3.5370715E-2,2.508254E-3,-0E0,8.631721E-6,-1.9066514E-2,1.6870265E-4,4.3850737E-3,1.4023266E-4,1.6237937E-5],"categories":[],"categories_nodes":[],"categories_segments":[],"categories_sizes":[],"default_left":[0,0,0,0,0,0,0,0,0,0,0,0,0,0,0,0,0,0,0],"id":78,"left_children":[1,3,5,7,9,-1,11,13,-1,-1,15,17,-1,-1,-1,-1,-1,-1,-1],"loss_changes":[8.60791E0,2.7525555E2,3.6912342E-4,2.3582054E1,1.6652379E3,0E0,1.09073E-3,3.1476285E0,0E0,0E0,2.6846157E-2,3.025022E-4,0E0,0E0,0E0,0E0,0E0,0E0,0E0],"parents":[2147483647,0,0,1,1,2,2,3,3,4,4,6,6,7,7,10,10,11,11],"right_children":[2,4,6,8,10,-1,12,14,-1,-1,16,18,-1,-1,-1,-1,-1,-1,-1],"split_conditions":[7E0,9E0,2E0,6E0,1E1,-4.886936E-6,1.3333334E0,2E0,-1.0390686E-1,9.364157E-1,3.868E2,9.502E1,-0E0,8.631721E-6,-1.9066514E-2,1.6870265E-4,4.3850737E-3,1.4023266E-4,1.6237937E-5],"split_indices":[0,3,9,3,3,0,5,9,0,0,2,2,0,0,0,0,0,0,0],"split_type":[0,0,0,0,0,0,0,0,0,0,0,0,0,0,0,0,0,0,0],"sum_hessian":[7.642E4,3E2,7.612E4,2.87E2,1.3E1,7.4134E4,1.986E3,2.86E2,1E0,1E0,1.2E1,1.93E2,1.793E3,2.79E2,7E0,1.1E1,1E0,6.7E1,1.26E2],"tree_param":{"num_deleted":"0","num_feature":"10","num_nodes":"19","size_leaf_vector":"1"}},{"base_weights":[-1.743844E-4,-7.2974977E-3,-1.4653293E-4,1.7135169E-3,-2.9293433E-1,-4.7335193E-6,2.1356695E-4,2.351845E-2,-2.5614863E-4,-4.1031145E-2,1.9524367E-1,2.4199183E-3,-0E0,2.8505194E-4,4.3192976E-3,9.714684E-6,-9.08048E-4,8.9637805E-3,5.365126E-4,1.3302249E-4,1.7999375E-5],"categories":[],"categories_nodes":[],"categories_segments":[],"categories_sizes":[],"default_left":[0,0,0,0,0,0,0,0,0,0,0,0,0,0,0,0,0,0,0,0,0],"id":79,"left_children":[1,3,5,7,9,-1,11,13,15,-1,17,19,-1,-1,-1,-1,-1,-1,-1,-1,-1],"loss_changes":[1.43830925E-2,7.580315E-1,3.022682E-4,1.4143072E-2,5.1063957E0,0E0,1.0082019E-3,2.8871689E-2,7.338383E-3,0E0,9.154695E-2,1.8307706E-4,0E0,0E0,0E0,0E0,0E0,0E0,0E0,0E0,0E0],"parents":[2147483647,0,0,1,1,2,2,3,3,4,4,6,6,7,7,8,8,10,10,11,11],"right_children":[2,4,6,8,10,-1,12,14,16,-1,18,20,-1,-1,-1,-1,-1,-1,-1,-1,-1],"split_conditions":[7E0,2E0,2E0,2.3333333E0,1.3333334E0,-4.7335193E-6,1.3333334E0,4.9512E2,5E-1,-4.1031145E-2,5E-1,9.502E1,-0E0,2.8505194E-4,4.3192976E-3,9.714684E-6,-9.08048E-4,8.9637805E-3,5.365126E-4,1.3302249E-4,1.7999375E-5],"split_indices":[0,9,9,5,5,0,5,2,4,0,4,2,0,0,0,0,0,0,0,0,0],"split_type":[0,0,0,0,0,0,0,0,0,0,0,0,0,0,0,0,0,0,0,0,0],"sum_hessian":[7.6256E4,2.82E2,7.5974E4,2.74E2,8E0,7.3942E4,2.032E3,2.6E1,2.48E2,2E0,6E0,1.87E2,1.845E3,2.5E1,1E0,2.41E2,7E0,3E0,3E0,6.2E1,1.25E2],"tree_param":{"num_deleted":"0","num_feature":"10","num_nodes":"21","size_leaf_vector":"1"}},{"base_weights":[5.03489E-4,1.6907686E-1,-1.4201216E-4,-2.3910314E-2,4.6824365E0,-4.590838E-6,2.1291681E-4,-0E0,-6.7405057E-1,-4.7664404E-1,9.2298484E-1,2.4597747E-3,-0E0,2.974145E-5,-6.491854E-4,-0E0,-1.0233465E-1,-4.0210526E-2,-3.7401067E-3,1.310716E-4,1.7629836E-5],"categories":[],"categories_nodes":[],"categories_segments":[],"categories_sizes":[],"default_left":[0,0,0,0,0,0,0,0,0,0,0,0,0,0,0,0,0,0,0,0,0],"id":80,"left_children":[1,3,5,7,9,-1,11,13,15,17,-1,19,-1,-1,-1,-1,-1,-1,-1,-1,-1],"loss_changes":[8.329568E0,2.5491582E2,2.9158895E-4,4.3827934E0,1.63251E3,0E0,1.0157569E-3,5.4084565E-3,1.8728514E1,3.0304203E0,0E0,1.5587371E-4,0E0,0E0,0E0,0E0,0E0,0E0,0E0,0E0,0E0],"parents":[2147483647,0,0,1,1,2,2,3,3,4,4,6,6,7,7,8,8,9,9,11,11],"right_children":[2,4,6,8,10,-1,12,14,16,18,-1,20,-1,-1,-1,-1,-1,-1,-1,-1,-1],"split_conditions":[7E0,2E0,2E0,4.1445E2,2.3774E2,-4.590838E-6,1.3333334E0,2E0,2E0,1.3333334E0,9.2298484E-1,9.502E1,-0E0,2.974145E-5,-6.491854E-4,-0E0,-1.0233465E-1,-4.0210526E-2,-3.7401067E-3,1.310716E-4,1.7629836E-5],"split_indices":[0,9,9,2,2,0,5,1,1,5,0,2,0,0,0,0,0,0,0,0,0],"split_type":[0,0,0,0,0,0,0,0,0,0,0,0,0,0,0,0,0,0,0,0,0],"sum_hessian":[7.6392E4,2.91E2,7.6101E4,2.8E2,1.1E1,7.4084E4,2.017E3,2.71E2,9E0,1E1,1E0,1.82E2,1.835E3,2.61E2,1E1,8E0,1E0,2E0,8E0,6.3E1,1.19E2],"tree_param":{"num_deleted":"0","num_feature":"10","num_nodes":"21","size_leaf_vector":"1"}},{"base_weights":[-2.6072742E-4,-3.3594307E-2,-1.3704703E-4,-1.1654127E-2,-5.1245874E-1,-5.8015772E-5,-4.3521754E-6,-1.1600706E-3,-1.0960996E-1,-2.2390926E0,4.6777267E-2,1.4305778E-4,-4.164535E-6,-2.980788E-3,1.7184948E-4,-2.4766611E-2,-2.133755E-4,-0E0,-1.0079963E-1,-0E0,5.7895277E-3,-4.777562E-7,6.9539914E-5],"categories":[],"categories_nodes":[],"categories_segments":[],"categories_sizes":[],"default_left":[0,0,0,0,0,0,0,0,0,0,0,0,0,0,0,0,0,0,0,0,0,0,0],"id":81,"left_children":[1,3,5,7,9,11,-1,13,15,17,19,21,-1,-1,-1,-1,-1,-1,-1,-1,-1,-1,-1],"loss_changes":[3.11115E-1,2.8728943E0,2.7889968E-5,2.6428753E-1,1.1911119E1,1.3212391E-4,0E0,1.7498277E-1,1.7454216E0,7.5384283E0,5.260471E-2,9.162683E-4,0E0,0E0,0E0,0E0,0E0,0E0,0E0,0E0,0E0,0E0,0E0],"parents":[2147483647,0,0,1,1,2,2,3,3,4,4,5,5,7,7,8,8,9,9,10,10,11,11],"right_children":[2,4,6,8,10,12,-1,14,16,18,20,22,-1,-1,-1,-1,-1,-1,-1,-1,-1,-1,-1],"split_conditions":[7E0,4.1445E2,1.3333334E0,2.2204E2,4.6939E2,7.1428573E-1,-4.3521754E-6,1.3333334E0,2.3774E2,2E0,2E0,3.846154E-2,-4.164535E-6,-2.980788E-3,1.7184948E-4,-2.4766611E-2,-2.133755E-4,-0E0,-1.0079963E-1,-0E0,5.7895277E-3,-4.777562E-7,6.9539914E-5],"split_indices":[0,2,5,2,2,8,0,5,2,1,1,8,0,0,0,0,0,0,0,0,0,0,0],"split_type":[0,0,0,0,0,0,0,0,0,0,0,0,0,0,0,0,0,0,0,0,0,0,0],"sum_hessian":[7.6282E4,2.78E2,7.6004E4,2.67E2,1.1E1,8.156E3,6.7848E4,2.43E2,2.4E1,2E0,9E0,1.983E3,6.173E3,1.6E1,2.27E2,2E0,2.2E1,1E0,1E0,8E0,1E0,1.806E3,1.77E2],"tree_param":{"num_deleted":"0","num_feature":"10","num_nodes":"23","size_leaf_vector":"1"}},{"base_weights":[-2.1302722E-4,-2.1576986E-2,-1.333077E-4,-0E0,-4.655719E-1,-5.3856063E-5,-4.2438E-6,-7.148977E-2,6.2094782E-3,-2.2054927E0,4.218576E-2,1.4440881E-4,-4.028121E-6,-6.833228E-3,-0E0,8.929011E-4,-0E0,-0E0,-9.928764E-2,-0E0,5.7026846E-3,-4.370286E-7,6.623506E-5],"categories":[],"categories_nodes":[],"categories_segments":[],"categories_sizes":[],"default_left":[0,0,0,0,0,0,0,0,0,0,0,0,0,0,0,0,0,0,0,0,0,0,0],"id":82,"left_children":[1,3,5,7,9,11,-1,13,15,17,19,21,-1,-1,-1,-1,-1,-1,-1,-1,-1,-1,-1],"loss_changes":[1.2778135E-1,2.6879504E0,2.9704068E-5,1.1685028E-1,1.1794327E1,1.3002845E-4,0E0,2.5584128E-1,3.5655044E-2,7.31415E0,5.2692007E-2,8.7969576E-4,0E0,0E0,0E0,0E0,0E0,0E0,0E0,0E0,0E0,0E0,0E0],"parents":[2147483647,0,0,1,1,2,2,3,3,4,4,5,5,7,7,8,8,9,9,10,10,11,11],"right_children":[2,4,6,8,10,12,-1,14,16,18,20,22,-1,-1,-1,-1,-1,-1,-1,-1,-1,-1,-1],"split_conditions":[7E0,4.1445E2,1.3333334E0,1.3333334E0,4.6939E2,6E-1,-4.2438E-6,6E-1,6E-1,2E0,2E0,3.846154E-2,-4.028121E-6,-6.833228E-3,-0E0,8.929011E-4,-0E0,-0E0,-9.928764E-2,-0E0,5.7026846E-3,-4.370286E-7,6.623506E-5],"split_indices":[0,2,5,5,2,8,0,8,8,1,1,8,0,0,0,0,0,0,0,0,0,0,0],"split_type":[0,0,0,0,0,0,0,0,0,0,0,0,0,0,0,0,0,0,0,0,0,0,0],"sum_hessian":[7.6303E4,2.78E2,7.6025E4,2.66E2,1.2E1,8.217E3,6.7808E4,2E1,2.46E2,2E0,1E1,2.012E3,6.205E3,6E0,1.4E1,5E1,1.96E2,1E0,1E0,9E0,1E0,1.824E3,1.88E2],"tree_param":{"num_deleted":"0","num_feature":"10","num_nodes":"23","size_leaf_vector":"1"}},{"base_weights":[-2.8380603E-4,-2.034965E-4,-4.017935E-3,-1.3301228E-4,-3.0889357E-3,-8.859197E-2,1.8076811E-4,-4.20957E-6,-7.8714205E-5,-1.3235386E-3,-1.2735321E-2,-2.2763195E-3,-4.3279055E-1,-0E0,1.5461977E-3,4.1821895E-7,-3.58123E-6,6.6563052E-6,-3.484507E-4,-1.0552334E-3,1.4869463E-5,-5.017729E-4,-0E0,-9.7798325E-2,-0E0,1.2317879E-6,-2.2570987E-6,4.591805E-4,-0E0],"categories":[],"categories_nodes":[],"categories_segments":[],"categories_sizes":[],"default_left":[0,0,0,0,0,0,0,0,0,0,0,0,0,0,0,0,0,0,0,0,0,0,0,0,0,0,0,0,0],"id":83,"left_children":[1,3,5,7,9,11,13,-1,15,17,19,21,23,25,27,-1,-1,-1,-1,-1,-1,-1,-1,-1,-1,-1,-1,-1,-1],"loss_changes":[2.2498842E-2,1.4900843E-2,5.7098246E-1,7.088529E-6,2.8396266E-2,2.213447E0,4.5277568E-4,0E0,4.933375E-5,2.4839777E-2,8.127087E-2,3.3155042E-3,1.8444857E1,5.796674E-6,5.1205275E-3,0E0,0E0,0E0,0E0,0E0,0E0,0E0,0E0,0E0,0E0,0E0,0E0,0E0,0E0],"parents":[2147483647,0,0,1,1,2,2,3,3,4,4,5,5,6,6,8,8,9,9,10,10,11,11,12,12,13,13,14,14],"right_children":[2,4,6,8,10,12,14,-1,16,18,20,22,24,26,28,-1,-1,-1,-1,-1,-1,-1,-1,-1,-1,-1,-1,-1,-1],"split_conditions":[2.5E0,2E0,9E0,7.5E-1,7.5E-1,4.483E2,4.9512E2,-4.20957E-6,3.846154E-2,2.3473E2,9.502E1,6E0,4.6939E2,6E-1,5.2293E2,4.1821895E-7,-3.58123E-6,6.6563052E-6,-3.484507E-4,-1.0552334E-3,1.4869463E-5,-5.017729E-4,-0E0,-9.7798325E-2,-0E0,1.2317879E-6,-2.2570987E-6,4.591805E-4,-0E0],"split_indices":[4,9,3,6,6,2,2,0,8,2,2,3,2,8,2,0,0,0,0,0,0,0,0,0,0,0,0,0,0],"split_type":[0,0,0,0,0,0,0,0,0,0,0,0,0,0,0,0,0,0,0,0,0,0,0,0,0,0,0,0,0],